    0.102625062274697108E+02    0.505787717318316399E+00    0.371548666335153599E+00    0.410914634144479818E+00    0.119622263354429222E+03   -0.367831518243887672E+02
    0.853338940912271227E+01    0.788036042666723335E+00    0.419059404979779893E+00   -0.212673554747525750E+00    0.951473389968476795E+02   -0.338013182950721003E+02
    0.479184244837888862E+01    0.761486336970589317E+00    0.384118304502966024E+00    0.298332216742301870E+00    0.648925336480107262E+02   -0.336211260783462436E+02
    0.610800555643896992E+01    0.959900820635980812E+00    0.408849397305167728E+00   -0.141268151551136895E+00    0.874996943160675187E+02   -0.334808951352855928E+02
    0.498588496501934664E+01    0.866544782251985168E+00    0.391085338473101951E+00    0.215661363973741693E+00    0.637074545142213182E+02   -0.330788107176445791E+02
    0.531045475210307405E+01    0.816849350384400319E+00    0.368692590261833042E+00    0.415183175774815449E+00    0.836201258208162983E+02   -0.330440438194881096E+02
    0.640592029715890465E+01    0.837900523049676105E+00    0.412513802638667881E+00   -0.846087479915666185E-01    0.930404545206050670E+02   -0.327169316396037573E+02
    0.443454575863044731E+01    0.911902681728181008E+00    0.416007695698820235E+00   -0.148497526777817246E+00    0.639788240866672098E+02   -0.324674350634956994E+02
    0.437533631976239956E+01    0.913951932988187332E+00    0.393570843216566602E+00    0.156057183548088230E+00    0.635368613866377245E+02   -0.318334305096561110E+02
    0.725263647116934251E+01    0.815793454940236251E+00    0.413757941144830721E+00   -0.182948348239243580E+00    0.985522157238979446E+02   -0.314274427553322617E+02
    0.655434393403674953E+01    0.798946048375418161E+00    0.407814680612604397E+00   -0.108489245377513879E+00    0.118623556884512752E+03   -0.313607666388930468E+02
    0.586931032117642104E+01    0.773562823776595354E+00    0.375661193443377617E+00    0.246628617200808614E+00    0.112890300221532613E+03   -0.309956412552544549E+02
    0.390868234827178629E+01    0.977484493421150624E+00    0.395151103268085779E+00    0.238632149758352605E-01    0.803534065402741646E+02   -0.309692289124452351E+02
    0.390868234827178629E+01    0.977484493421150624E+00    0.395151103268085779E+00    0.238632149758352605E-01    0.803534065402741646E+02   -0.309692289124452351E+02
    0.405993168267089022E+01    0.981834803561026148E+00    0.394967242851597289E+00   -0.798399669886432420E-02    0.593034847573933206E+02   -0.308608366294916721E+02
    0.741156845755271831E+01    0.823807191920683302E+00    0.399145675026125357E+00   -0.264712180928375305E-01    0.961492293819697608E+02   -0.308419330695467657E+02
    0.390093997537263215E+01    0.101043658418265148E+01    0.390663283265872519E+00    0.717460781510180917E-01    0.791199035266452029E+02   -0.306568323463193977E+02
    0.524609780535441406E+01    0.889815918364934677E+00    0.391131642844829375E+00    0.146182236309583269E+00    0.779982008017410919E+02   -0.306355898449915252E+02
    0.512341883670730702E+01    0.992049157129295422E+00    0.393699372254138258E+00   -0.433505044120984090E-01    0.871171319355247959E+02   -0.305233275377121487E+02
    0.554671259647733450E+01    0.898835898268562139E+00    0.384457408699693859E+00    0.100511628682099244E+00    0.811543397811902594E+02   -0.304629204937289089E+02
    0.547778385474839435E+01    0.830741304596847585E+00    0.399703394213637986E+00   -0.188876179685343697E-01    0.757465285475938970E+02   -0.302695161351551825E+02
    0.459943460376034619E+01    0.915600703047914299E+00    0.400266798189315876E+00    0.370812941928198997E-01    0.724517425263166928E+02   -0.302047897595928490E+02
    0.459943460376034619E+01    0.915600703047914299E+00    0.400266798189315876E+00    0.370812941928198997E-01    0.724517425263166928E+02   -0.302047897595928490E+02
    0.515189524234521645E+01    0.855954378861231935E+00    0.398870146787514201E+00    0.593901786190142930E-01    0.771202058250570701E+02   -0.301256178441731421E+02
    0.499000818247118705E+01    0.903068790966974122E+00    0.384766761548039959E+00    0.186684890374625989E+00    0.886099768496061131E+02   -0.300919593982672318E+02
    0.459197416331561925E+01    0.915701031297796009E+00    0.396464336774159820E+00   -0.120348834521384652E-01    0.806190890633120461E+02   -0.300882716615036259E+02
    0.433867685167295924E+01    0.935585740826461842E+00    0.385030874525288280E+00    0.154147350381656612E+00    0.882522053324717604E+02   -0.299655633526874077E+02
    0.546622719683343128E+01    0.847720424713076293E+00    0.403222453872150222E+00   -0.259777920983803763E-01    0.712362973303316380E+02   -0.299213684406083971E+02
    0.498691783492661056E+01    0.939747586604008811E+00    0.385765423223568438E+00    0.136090689273160703E+00    0.852299573702697444E+02   -0.298678469900701202E+02
    0.589872105910086564E+01    0.865207757036958292E+00    0.387510120137701641E+00    0.100023572516336742E+00    0.103867280095996293E+03   -0.298284408817634379E+02
    0.622779747974530196E+01    0.829658335073669262E+00    0.396320385474892123E+00   -0.165568522700918494E-02    0.856058411204921015E+02   -0.295023737420669470E+02
    0.622779747974530196E+01    0.829658335073669262E+00    0.396320385474892123E+00   -0.165568522700918494E-02    0.856058411204921015E+02   -0.295023737420669470E+02
    0.522133505448310409E+01    0.879162532748167469E+00    0.388851421653538976E+00    0.105758627163534041E+00    0.765811816157371226E+02   -0.293707685439720230E+02
    0.522133505448310409E+01    0.879162532748167469E+00    0.388851421653538976E+00    0.105758627163534041E+00    0.765811816157371226E+02   -0.293707685439720230E+02
    0.510712162163716066E+01    0.937588140354710942E+00    0.400089461609750952E+00    0.742792383338518412E-02    0.605065692825194432E+02   -0.295401787463910885E+02
    0.483484630376635938E+01    0.898401467854056279E+00    0.393571931890866811E+00    0.421254887588083937E-01    0.666749062490107178E+02   -0.296569698867804803E+02
    0.547521615768797609E+01    0.902209219225094450E+00    0.397673022359667339E+00    0.247862313052394229E-01    0.787863614040481650E+02   -0.294221008476864689E+02
    0.523909571641665117E+01    0.890768110083530296E+00    0.400561644297335540E+00   -0.509254452238125099E-01    0.958425005153843443E+02   -0.295619625074661130E+02
    0.544889087488794477E+01    0.840902317319848769E+00    0.396001685825149830E+00    0.518182547949012778E-01    0.909691527724478988E+02   -0.293865560172825049E+02
    0.544889087488794477E+01    0.840902317319848769E+00    0.396001685825149830E+00    0.518182547949012778E-01    0.909691527724478988E+02   -0.293865560172825049E+02
    0.558331338361453966E+01    0.922721012759187387E+00    0.413613695868862929E+00   -0.195642021205119920E+00    0.740678614654359251E+02   -0.296420048603661357E+02
    0.558331338361453966E+01    0.922721012759187387E+00    0.413613695868862929E+00   -0.195642021205119920E+00    0.740678614654359251E+02   -0.296420048603661357E+02
    0.557594886058360562E+01    0.944199564270553515E+00    0.417606957052225503E+00   -0.240859159240070536E+00    0.673672652408411352E+02   -0.297624402041340943E+02
    0.487607219387146085E+01    0.891525138406196516E+00    0.395035951767711502E+00    0.324293148672323145E-01    0.682986956392811067E+02   -0.296106711646976066E+02
