    0.824982085714100144E+01    0.249597642263283764E+00    0.341213196135853492E+00    0.877723667223291537E+00    0.340124434877917508E+03   -0.515827094021611785E+02
    0.590222850402719601E+01    0.270367901630447605E+00    0.338419976084886609E+00    0.903944681479067480E+00    0.337069410170244623E+03   -0.515027980629185294E+02
    0.850581442225472273E+01    0.310154726894241062E+00    0.349252991522155720E+00    0.743006222978347286E+00    0.300880178698370003E+03   -0.511915698243092763E+02
    0.703582587914271862E+01    0.384126284087705383E+00    0.379553621675040198E+00    0.469898242478289374E+00    0.220704154391548883E+03   -0.509837258614216609E+02
    0.601048466806595894E+01    0.424773924247873025E+00    0.415643140774415998E+00    0.139267863015718446E+00    0.140923823101858432E+03   -0.507461804881628851E+02
    0.406848820467760408E+01    0.580954428073883644E+00    0.463879618684690798E+00   -0.222440294152428136E+00    0.686583722672774002E+02   -0.501871345697331819E+02
    0.513698395176833067E+01    0.542221904943472333E+00    0.468693150662266633E+00   -0.267710548712070229E+00    0.659063606623105613E+02   -0.501716435518010826E+02
    0.582949886458546107E+01    0.438925401259160963E+00    0.381332775772698307E+00    0.370008619287855556E+00    0.208717322805967882E+03   -0.495610760379572000E+02
    0.702402404775144085E+01    0.597821653896303040E+00    0.497959356609930293E+00   -0.699461583563356415E+00    0.389627364432174943E+02   -0.493132345041177373E+02
    0.484712218819086615E+01    0.614633129245386822E+00    0.466776993757924863E+00   -0.387245514015295833E+00    0.725659943330146007E+02   -0.492321807370868854E+02
    0.525908711138580820E+01    0.343872042255880805E+00    0.339304033694196261E+00    0.902392957209969260E+00    0.302649084420537520E+03   -0.491403883287197516E+02
    0.497299144858160158E+01    0.394560029271606716E+00    0.344042367451265596E+00    0.868110689153758885E+00    0.286338816067445691E+03   -0.490785031143620785E+02
    0.311002237996440378E+01    0.809349722446747855E+00    0.504494115470918159E+00   -0.707668914652381575E+00    0.209341241259207820E+02   -0.489351204648782172E+02
    0.475214352535327844E+01    0.591650945042757392E+00    0.464733706506191946E+00   -0.339968541680861214E+00    0.726147182351800495E+02   -0.488630874302339322E+02
    0.350115856151205884E+01    0.730041332578029389E+00    0.508859409200008384E+00   -0.664478222467563273E+00    0.171567405667887627E+02   -0.488185658168471264E+02
    0.636197694792377533E+01    0.658908383690654076E+00    0.516046024039034879E+00   -0.852077310491835438E+00    0.215531635583747025E+02   -0.487998519256564194E+02
    0.416840206800350721E+01    0.623831894904227635E+00    0.477245213691159909E+00   -0.411338023613471659E+00    0.545081543361248322E+02   -0.483210408521356527E+02
    0.483106160346934033E+01    0.736978513062427565E+00    0.517372753303010247E+00   -0.823422278727138246E+00    0.136388050678505550E+02   -0.483174005100938970E+02
    0.667617285533217064E+01    0.639402455092416666E+00    0.501062665009670782E+00   -0.806506914126439156E+00    0.418442680616759120E+02   -0.479439772103638759E+02
    0.553871760885557851E+01    0.541348058136786103E+00    0.493225151238272652E+00   -0.591479057366163241E+00    0.422418855983339228E+02   -0.478092377823889336E+02
    0.641686562713657427E+01    0.591249354965508567E+00    0.497681868666802474E+00   -0.705233903100995096E+00    0.442465179101275510E+02   -0.478037723241085430E+02
    0.527937466519791165E+01    0.624135587400142078E+00    0.484320056892719064E+00   -0.550615887827785144E+00    0.522803879449279592E+02   -0.478032654005355795E+02
    0.379138970609014514E+01    0.735235831283137520E+00    0.495197635185560814E+00   -0.670525898077622307E+00    0.379224813155063956E+02   -0.475277716374353361E+02
    0.342390610006575669E+01    0.937731992569094674E+00    0.520332407741751712E+00   -0.979675190592825818E+00    0.873001651493519049E+01   -0.472583968728773911E+02
    0.755396435536618149E+01    0.651155119990943221E+00    0.507796520802231255E+00   -0.937019707535347579E+00    0.304541645904533027E+02   -0.471087446591414931E+02
    0.533191826475023944E+01    0.688310125443725940E+00    0.492809125812745996E+00   -0.701142005652249822E+00    0.425566975506639409E+02   -0.470014011796289921E+02
    0.547006882962217578E+01    0.618671423209536830E+00    0.485225132230960310E+00   -0.547745870681952574E+00    0.410727832698192330E+02   -0.469164652439231418E+02
    0.547006882962217578E+01    0.618671423209536830E+00    0.485225132230960310E+00   -0.547745870681952574E+00    0.410727832698192330E+02   -0.469164652439231418E+02
    0.667237898873461077E+01    0.649728681874403247E+00    0.501969131148634173E+00   -0.860974527491194630E+00    0.402728991758925048E+02   -0.468724149289723329E+02
    0.541199108938736195E+01    0.710368910259902231E+00    0.501264173449863626E+00   -0.757766230226959214E+00    0.295487036506221763E+02   -0.467087539669762890E+02
    0.389887824870532729E+01    0.793852909231301584E+00    0.515967253705530871E+00   -0.961857438031259337E+00    0.199852191846891536E+02   -0.466683419204609393E+02
    0.619654967776050292E+01    0.741524583478891830E+00    0.514172579526229190E+00   -0.966092586524164521E+00    0.225516218866819180E+02   -0.466654454409936577E+02
    0.452418032740117049E+01    0.704494930802759600E+00    0.486994806742825970E+00   -0.610778361048105789E+00    0.431435072249343534E+02   -0.466554374880623044E+02
    0.520393701190486979E+01    0.620847802971106977E+00    0.495957881426331015E+00   -0.663186136877271126E+00    0.393088373437194960E+02   -0.464169267339117937E+02
    0.520393701190486979E+01    0.620847802971106977E+00    0.495957881426331015E+00   -0.663186136877271126E+00    0.393088373437194960E+02   -0.464169267339117937E+02
    0.710043223715104688E+01    0.707502674524453590E+00    0.522907659454109552E+00   -0.112749209879640877E+01    0.248874923991104708E+02   -0.463588297688955109E+02
    0.456882524197475703E+01    0.773730121710090368E+00    0.493332460380581372E+00   -0.764709106031262520E+00    0.379505484050159296E+02   -0.463012432420616591E+02
    0.508433067470016553E+01    0.646195561146047703E+00    0.501923769918300788E+00   -0.735053941540460998E+00    0.277177274956043220E+02   -0.460519309841829951E+02
    0.508433067470016553E+01    0.646195561146047703E+00    0.501923769918300788E+00   -0.735053941540460998E+00    0.277177274956043220E+02   -0.460519309841829951E+02
    0.667116428031658337E+01    0.663311277140187006E+00    0.507538106935724542E+00   -0.919271304999263461E+00    0.279977481318855155E+02   -0.459625268374975207E+02
    0.667116428031658337E+01    0.663311277140187006E+00    0.507538106935724542E+00   -0.919271304999263461E+00    0.279977481318855155E+02   -0.459625268374975207E+02
    0.598534317034412755E+01    0.710048032584431388E+00    0.513559200594492449E+00   -0.937274943703904184E+00    0.234472315839038998E+02   -0.459055522011703658E+02
    0.598534317034412755E+01    0.710048032584431388E+00    0.513559200594492449E+00   -0.937274943703904184E+00    0.234472315839038998E+02   -0.459055522011703658E+02
    0.457846530433798016E+01    0.685055762791093592E+00    0.504921477839436528E+00   -0.772976203346196322E+00    0.299432677564081402E+02   -0.458276462527383401E+02
    0.386817691985095991E+01    0.826784451965143496E+00    0.520476087855515579E+00   -0.958299386594574920E+00    0.155189749593594790E+02   -0.457083331462672220E+02
    0.587803280542184048E+01    0.811906369456643406E+00    0.538688055015303480E+00   -0.132658212544454290E+01    0.126531855492272616E+02   -0.456993435280956817E+02
    0.523260453248491864E+01    0.659842436241686259E+00    0.500531518421664545E+00   -0.741940722363142902E+00    0.286741057529277192E+02   -0.456926224177175087E+02
    0.500279415522711712E+01    0.724012736975837123E+00    0.517175939915994864E+00   -0.934268502324602457E+00    0.175261788716407132E+02   -0.456525613291310250E+02
    0.617559434792669570E+01    0.718773068411526217E+00    0.513322049202102226E+00   -0.102202264557297839E+01    0.296598628540166303E+02   -0.455757731748311414E+02
    0.559646054857321396E+01    0.682380550156005405E+00    0.511324469343014454E+00   -0.905617036452644464E+00    0.263617708648458802E+02   -0.454847098476330842E+02
    0.542643675339344611E+01    0.689258450282414614E+00    0.510311505540974042E+00   -0.885915177232900142E+00    0.282239156980570911E+02   -0.454318554561297603E+02
    0.482503174896180820E+01    0.792641493104548123E+00    0.508954734769101691E+00   -0.906278813436442343E+00    0.242404062989169518E+02   -0.450965730571722077E+02
    0.482503174896180820E+01    0.792641493104548123E+00    0.508954734769101691E+00   -0.906278813436442343E+00    0.242404062989169518E+02   -0.450965730571722077E+02
    0.390826901117771719E+01    0.822114727923490385E+00    0.508488325313048550E+00   -0.915829885247999020E+00    0.224691604737780679E+02   -0.453225533696197047E+02
    0.413073805952492190E+01    0.851298386732455281E+00    0.525458429219788803E+00   -0.108824405672173019E+01    0.154306903460265250E+02   -0.451649161139097828E+02
    0.413073805952492190E+01    0.851298386732455281E+00    0.525458429219788803E+00   -0.108824405672173019E+01    0.154306903460265250E+02   -0.451649161139097828E+02
    0.422980865004037554E+01    0.820887079079399951E+00    0.505864731929261735E+00   -0.905180468330888499E+00    0.240401697790326239E+02   -0.444707612621251229E+02
    0.422980865004037554E+01    0.820887079079399951E+00    0.505864731929261735E+00   -0.905180468330888499E+00    0.240401697790326239E+02   -0.444707612621251229E+02
    0.422980865004037554E+01    0.820887079079399951E+00    0.505864731929261735E+00   -0.905180468330888499E+00    0.240401697790326239E+02   -0.444707612621251229E+02
    0.485679270960539800E+01    0.897081428227514799E+00    0.542290306245963527E+00   -0.133196093188949738E+01    0.110946254685394621E+02   -0.453926632672570136E+02
    0.543623343799483294E+01    0.772687275872375290E+00    0.517116368002037308E+00   -0.108691894275601042E+01    0.199160344507103844E+02   -0.446774589608011325E+02
    0.543623343799483294E+01    0.772687275872375290E+00    0.517116368002037308E+00   -0.108691894275601042E+01    0.199160344507103844E+02   -0.446774589608011325E+02
    0.545620550889494371E+01    0.733585191966568684E+00    0.512932563579933665E+00   -0.100429269938721144E+01    0.277388874731269084E+02   -0.451854736277314757E+02
    0.545620550889494371E+01    0.733585191966568684E+00    0.512932563579933665E+00   -0.100429269938721144E+01    0.277388874731269084E+02   -0.451854736277314757E+02
    0.463205630326514317E+01    0.849039464209491945E+00    0.533343739988961896E+00   -0.119365358234985530E+01    0.154567967000596731E+02   -0.451420661222878010E+02
    0.463205630326514317E+01    0.849039464209491945E+00    0.533343739988961896E+00   -0.119365358234985530E+01    0.154567967000596731E+02   -0.451420661222878010E+02
    0.628926264034794169E+01    0.691242322516913754E+00    0.505088972655058033E+00   -0.920980964589539375E+00    0.279700953702801272E+02   -0.451750293304116894E+02
    0.596456390068678122E+01    0.702754896175775579E+00    0.509554590113545092E+00   -0.983502589715612885E+00    0.300086376658271945E+02   -0.454040629657062240E+02
