    0.753781047207226251E+01    0.143490944853481706E+01    0.426266498781532888E+00   -0.104649596276914192E+01    0.581676394191388013E+01   -0.446825657951952380E+02
    0.524285183159527524E+01    0.139429667050145856E+01    0.381861723688887489E+00   -0.425246516922244133E+00    0.198562721028130227E+02   -0.397404519060198709E+02
    0.423005242742739362E+01    0.139552870049426070E+01    0.417824953577091374E+00   -0.728017146494144285E+00    0.191286379543534153E+02   -0.409951502387859463E+02
    0.407733574684517386E+01    0.159140846069737085E+01    0.413506431722348466E+00   -0.811142464456927503E+00    0.132298888351559558E+02   -0.385104871362145502E+02
    0.426253174845233751E+01    0.161271034289749715E+01    0.409839646836268112E+00   -0.879484699029187800E+00    0.927795272754776157E+01   -0.373208902717817992E+02
    0.426253174845233751E+01    0.161271034289749715E+01    0.409839646836268112E+00   -0.879484699029187800E+00    0.927795272754776157E+01   -0.373208902717817992E+02
    0.426253174845233751E+01    0.161271034289749715E+01    0.409839646836268112E+00   -0.879484699029187800E+00    0.927795272754776157E+01   -0.373208902717817992E+02
    0.452042378715530635E+01    0.149652511339867678E+01    0.390661208030546270E+00   -0.588977356630987603E+00    0.166607025772993005E+02   -0.369424541470856269E+02
    0.452042378715530635E+01    0.149652511339867678E+01    0.390661208030546270E+00   -0.588977356630987603E+00    0.166607025772993005E+02   -0.369424541470856269E+02
    0.452042378715530635E+01    0.149652511339867678E+01    0.390661208030546270E+00   -0.588977356630987603E+00    0.166607025772993005E+02   -0.369424541470856269E+02
    0.402607803559755517E+01    0.161087436219381241E+01    0.410716836058584722E+00   -0.822775384518379505E+00    0.965717493179510811E+01   -0.374114145398354694E+02
    0.402607803559755517E+01    0.161087436219381241E+01    0.410716836058584722E+00   -0.822775384518379505E+00    0.965717493179510811E+01   -0.374114145398354694E+02
