    0.914925788342056201E+01    0.167900361185567337E+00    0.340874441291359909E+00    0.904031243973620890E+00    0.273830031710947850E+02   -0.646883560459721849E+02
    0.129982361534949220E+02    0.171219173068435426E+00    0.357145253261419826E+00    0.680093023411054598E+00    0.322135204612077430E+02   -0.646403839676122800E+02
    0.106464738934152301E+02    0.138853950418922151E+00    0.335156280695225517E+00    0.949032783903911215E+00    0.458052135161542964E+02   -0.642912492431741498E+02
    0.888850780298264276E+01    0.231461724456306583E+00    0.384397296284207934E+00    0.481507535064241432E+00    0.197271181541826195E+02   -0.636022044704450380E+02
    0.883300553734014571E+01    0.290365917745498248E+00    0.389832489849630037E+00    0.414205186282937399E+00    0.139495548762766912E+02   -0.634878077843642572E+02
    0.881665378233211428E+01    0.184080805837085998E+00    0.348328861540865287E+00    0.800804211063777638E+00    0.416871853563160641E+02   -0.629357173851624481E+02
    0.124982085628980837E+02    0.293819526512574924E+00    0.385483864433333490E+00    0.228833638443969645E+00    0.148986867547337187E+02   -0.623287849199632049E+02
    0.952485000727155828E+01    0.351096941325359679E+00    0.394818814909790261E+00    0.256482946389100241E+00    0.755274556023683097E+01   -0.623224887201891775E+02
    0.636336321387492720E+01    0.502364034849655305E+00    0.422607216817567632E+00   -0.241864263629890525E-01    0.442481948014475002E+01   -0.622016982779656402E+02
    0.105360801786225906E+02    0.410909006400859311E+00    0.396104135827820447E+00    0.177549646080444740E+00    0.102016372992894517E+02   -0.615914050657462511E+02
    0.771539649216647749E+01    0.398241410084410774E+00    0.406611878841132035E+00    0.169562181275388885E+00    0.916827948258220538E+01   -0.612342442584298183E+02
    0.991801401058822307E+01    0.332565637551065330E+00    0.375343680523968493E+00    0.346496286295405964E+00    0.280970105340669960E+02   -0.605185074582712659E+02
    0.813405880352965838E+01    0.575841600131910880E+00    0.415661720130574952E+00   -0.634760827540699762E-01    0.436161371305725076E+01   -0.604269296290313278E+02
    0.813405880352965838E+01    0.575841600131910880E+00    0.415661720130574952E+00   -0.634760827540699762E-01    0.436161371305725076E+01   -0.604269296290313278E+02
    0.887375252946042536E+01    0.307394209916832750E+00    0.380046751791568771E+00    0.421892567553320830E+00    0.215702412798550895E+02   -0.603956952547096293E+02
    0.887375252946042536E+01    0.307394209916832750E+00    0.380046751791568771E+00    0.421892567553320830E+00    0.215702412798550895E+02   -0.603956952547096293E+02
    0.977341555243882176E+01    0.469671235241591989E+00    0.416568010885569884E+00   -0.952215046057513781E-01    0.404983928144585903E+01   -0.602953367853292974E+02
    0.977341555243882176E+01    0.469671235241591989E+00    0.416568010885569884E+00   -0.952215046057513781E-01    0.404983928144585903E+01   -0.602953367853292974E+02
    0.726705590175789418E+01    0.471482848507302321E+00    0.420104158065869260E+00   -0.363281362519267542E-01    0.729943504453776271E+01   -0.600397589208181870E+02
    0.726705590175789418E+01    0.471482848507302321E+00    0.420104158065869260E+00   -0.363281362519267542E-01    0.729943504453776271E+01   -0.600397589208181870E+02
    0.863841615611196012E+01    0.435131604505014147E+00    0.410675778645193112E+00    0.730380246365183554E-02    0.564351151316474819E+01   -0.598235952302937193E+02
    0.863841615611196012E+01    0.435131604505014147E+00    0.410675778645193112E+00    0.730380246365183554E-02    0.564351151316474819E+01   -0.598235952302937193E+02
    0.993810979394001315E+01    0.354118824867643678E+00    0.379824005533595632E+00    0.337220419130330962E+00    0.221145005594216428E+02   -0.597635839690331068E+02
    0.888685649269907785E+01    0.367016639073937945E+00    0.386402729553827207E+00    0.321224493453068916E+00    0.115092374123437278E+02   -0.597513678004571176E+02
    0.888685649269907785E+01    0.367016639073937945E+00    0.386402729553827207E+00    0.321224493453068916E+00    0.115092374123437278E+02   -0.597513678004571176E+02
    0.112604914128123035E+02    0.512576993581896123E+00    0.419942831809014927E+00   -0.214927611067142171E+00    0.620603664621541107E+01   -0.596965534544313812E+02
    0.112604914128123035E+02    0.512576993581896123E+00    0.419942831809014927E+00   -0.214927611067142171E+00    0.620603664621541107E+01   -0.596965534544313812E+02
    0.958631350628868262E+01    0.412466554367512672E+00    0.394632253953575873E+00    0.185579670642201489E+00    0.818869485000153574E+01   -0.596917337733922722E+02
    0.106670911591781703E+02    0.523248713264349741E+00    0.413611225957786988E+00   -0.146808733932221436E+00    0.761651232605793194E+01   -0.596404102602510164E+02
    0.106670911591781703E+02    0.523248713264349741E+00    0.413611225957786988E+00   -0.146808733932221436E+00    0.761651232605793194E+01   -0.596404102602510164E+02
    0.100503475557058621E+02    0.493995745259975805E+00    0.433053983897313144E+00   -0.304728321250569256E+00    0.627633369147782094E+01   -0.596373347476968831E+02
    0.100503475557058621E+02    0.493995745259975805E+00    0.433053983897313144E+00   -0.304728321250569256E+00    0.627633369147782094E+01   -0.596373347476968831E+02
    0.758554589981453820E+01    0.598680004794615472E+00    0.418962478716851550E+00   -0.103854097250828170E+00    0.390162978111114622E+01   -0.596360344959443438E+02
    0.980964352833230180E+01    0.334269747202005196E+00    0.375697922870222467E+00    0.372647932382132507E+00    0.248725340893991955E+02   -0.595437157378662505E+02
    0.980964352833230180E+01    0.334269747202005196E+00    0.375697922870222467E+00    0.372647932382132507E+00    0.248725340893991955E+02   -0.595437157378662505E+02
    0.109243381637923314E+02    0.392964604671565965E+00    0.401099586422278165E+00    0.655462285988137883E-01    0.958587032199726963E+01   -0.595377816236169792E+02
    0.112299433279893535E+02    0.377790837334768648E+00    0.397615818326078008E+00    0.787552912349329115E-01    0.123443217646104593E+02   -0.594852608045384059E+02
    0.964973964466891232E+01    0.378626194102986424E+00    0.393521642963155449E+00    0.198996594921441755E+00    0.152485933695604547E+02   -0.593664477326034330E+02
    0.108820478453313889E+02    0.463243524090378334E+00    0.416646852960124381E+00   -0.144058112151055517E+00    0.832448844213530847E+01   -0.593635833690818586E+02
    0.822866071532490828E+01    0.460665362514336485E+00    0.420265411223503416E+00   -0.787502829594204229E-01    0.621520984785113484E+01   -0.592736932441833062E+02
    0.951530968182071746E+01    0.366332185461786974E+00    0.389914503508865529E+00    0.215978509806884822E+00    0.174986879480058448E+02   -0.590949246479770807E+02
    0.838981194309264211E+01    0.471811603865878060E+00    0.412546383398858241E+00   -0.128357144275330366E-01    0.859635461862589167E+01   -0.587369264891916103E+02
    0.117629540152818457E+02    0.425731069764321401E+00    0.399649701939778834E+00    0.402119701278241121E-02    0.106904442638132817E+02   -0.590535080020966561E+02
    0.117629540152818457E+02    0.425731069764321401E+00    0.399649701939778834E+00    0.402119701278241121E-02    0.106904442638132817E+02   -0.590535080020966561E+02
    0.900734253280342223E+01    0.431228292103899735E+00    0.392053204342182771E+00    0.209905373685113333E+00    0.114215506041920918E+02   -0.586570054097600604E+02
    0.766554931468798628E+01    0.562997930123820045E+00    0.403514327780346904E+00    0.576066696738849401E-01    0.547362782203258824E+01   -0.585106754496493480E+02
    0.766554931468798628E+01    0.562997930123820045E+00    0.403514327780346904E+00    0.576066696738849401E-01    0.547362782203258824E+01   -0.585106754496493480E+02
    0.915894852698344408E+01    0.518259946051493947E+00    0.389248611905097741E+00    0.164192676671456622E+00    0.989229835859059570E+01   -0.590007241772901168E+02
    0.835566109369096388E+01    0.454390217839706456E+00    0.414144840143480741E+00   -0.592033159028765472E-02    0.681484000985106420E+01   -0.591610620886624261E+02
    0.113593794909894612E+02    0.465978189436787038E+00    0.398552448647670754E+00    0.171165566690601179E-01    0.727762567505593161E+01   -0.591574529644285718E+02
    0.925237012408799764E+01    0.554790155068955348E+00    0.435764809008716780E+00   -0.326982209056001505E+00    0.366298143683875077E+01   -0.592589303514187620E+02
    0.795670874813483575E+01    0.469621998237923666E+00    0.404413772974307251E+00    0.993043821395413889E-01    0.750647856097608379E+01   -0.587337427323717023E+02
    0.795670874813483575E+01    0.469621998237923666E+00    0.404413772974307251E+00    0.993043821395413889E-01    0.750647856097608379E+01   -0.587337427323717023E+02
