    0.113963636294007991E+02    0.689781303776760502E+00    0.384756994494543036E+00    0.869942052351299622E-02    0.502978713048432553E+02   -0.436793435211902334E+02
    0.186323179495525046E+02    0.824800338772617603E+00    0.470995411162086819E+00   -0.110461541098125315E+01    0.139779673086957246E+02   -0.434074560672172183E+02
    0.118104864510013350E+02    0.792884437265194530E+00    0.408109883510924087E+00   -0.325839520763753110E+00    0.127794868528889864E+02   -0.431623164365246978E+02
    0.158254966679478386E+02    0.742848722143212736E+00    0.467876376543525152E+00   -0.103842424696822455E+01    0.287975600139552768E+02   -0.430471641478839970E+02
    0.180819784879265377E+02    0.711663081464522507E+00    0.421706307766430921E+00   -0.507289786179926816E+00    0.402827876694830636E+02   -0.429707727335187428E+02
    0.151141411800258414E+02    0.773284328071128679E+00    0.481238653794342608E+00   -0.118115696809331583E+01    0.849066438573037630E+01   -0.429182797742347120E+02
    0.166745781737251910E+02    0.696563247782272188E+00    0.418747847745754964E+00   -0.397854119031295639E+00    0.115442785603528009E+02   -0.428197479677933970E+02
    0.960107498692221739E+01    0.900787820050519383E+00    0.417039639264985662E+00   -0.495003870775319488E+00    0.304842666139353291E+02   -0.427681382085819024E+02
    0.123011550162958159E+02    0.700521679321346791E+00    0.396931778930780632E+00   -0.158269258845120775E+00    0.336193318828823706E+02   -0.425307660900447644E+02
    0.132060639050292288E+02    0.802069552965862131E+00    0.410479593729987213E+00   -0.380916564889225651E+00    0.286417433084263173E+02   -0.424424679240751175E+02
    0.237879246106398163E+02    0.664788644633601544E+00    0.454054132971067614E+00   -0.858832946069246539E+00    0.204416936479011646E+02   -0.424357246271331832E+02
    0.202669723133500668E+02    0.680797343040115743E+00    0.442907391898103742E+00   -0.727176734827573168E+00    0.343695626250625850E+02   -0.420083560194942294E+02
    0.182394264120157921E+02    0.739443457263824211E+00    0.439547684020096974E+00   -0.707273645884689772E+00    0.130658922749073056E+02   -0.419200768926696625E+02
    0.177830226598345860E+02    0.665183114503514972E+00    0.438837676416787836E+00   -0.643565493513619025E+00    0.420841974356739925E+02   -0.417329669521019824E+02
    0.141056312320855390E+02    0.762256388791361372E+00    0.424370264814405096E+00   -0.549161224548980087E+00    0.379104607545270085E+02   -0.414988796411508218E+02
    0.138909363828695973E+02    0.869718628762574553E+00    0.485872695332363380E+00   -0.125143920207394244E+01    0.102711879380185280E+02   -0.412706984054343025E+02
    0.138909363828695973E+02    0.869718628762574553E+00    0.485872695332363380E+00   -0.125143920207394244E+01    0.102711879380185280E+02   -0.412706984054343025E+02
    0.158151833493881178E+02    0.739755601698922960E+00    0.431686718149640380E+00   -0.625695079914429186E+00    0.368034222699303228E+02   -0.412483613823956148E+02
    0.123215798904916856E+02    0.880812279477985127E+00    0.454175378411256769E+00   -0.910648553864499166E+00    0.605045225208870363E+01   -0.411465666948208266E+02
    0.123215798904916856E+02    0.880812279477985127E+00    0.454175378411256769E+00   -0.910648553864499166E+00    0.605045225208870363E+01   -0.411465666948208266E+02
    0.135103986323075258E+02    0.728383823638259154E+00    0.415615615219946666E+00   -0.420647357802552024E+00    0.344757536522742214E+02   -0.408492931046190222E+02
    0.140089021892375989E+02    0.717078912396377111E+00    0.430874540725863286E+00   -0.572190056052804930E+00    0.429727744302910324E+02   -0.408104096040732429E+02
    0.140089021892375989E+02    0.717078912396377111E+00    0.430874540725863286E+00   -0.572190056052804930E+00    0.429727744302910324E+02   -0.408104096040732429E+02
    0.144557860701228833E+02    0.780881830203823291E+00    0.424571838431236970E+00   -0.559697422871690664E+00    0.213330621751442706E+02   -0.408023970181344140E+02
    0.986531678896348652E+01    0.871641286500250190E+00    0.451012963607893613E+00   -0.879063622527681998E+00    0.106855160770367661E+02   -0.405603630344617798E+02
    0.143955325465944846E+02    0.817671404102999433E+00    0.473910554955553620E+00   -0.111397634726299799E+01    0.111483177399051101E+02   -0.403654232996740561E+02
    0.145526383542534639E+02    0.855154807602448219E+00    0.467350684123539695E+00   -0.104451293479226237E+01    0.123598961790341590E+02   -0.403414928813558760E+02
    0.166566324930963425E+02    0.705100503544228596E+00    0.423634071894747499E+00   -0.507199979970511916E+00    0.338839410441311912E+02   -0.402315362606908167E+02
    0.175806447889994395E+02    0.687131442186930785E+00    0.451132315284137331E+00   -0.811960263613487720E+00    0.240667843985022536E+02   -0.401622544260125665E+02
    0.156071774065138591E+02    0.678728737910025748E+00    0.410054291218399980E+00   -0.313844784698344093E+00    0.360977563899037719E+02   -0.401249177159545738E+02
    0.136194858513470578E+02    0.766809805308086290E+00    0.460426640805389253E+00   -0.944908930887495724E+00    0.222945470326104100E+02   -0.400382514085152295E+02
    0.157266256205524346E+02    0.704804651965805995E+00    0.449100738892037554E+00   -0.789312303147237770E+00    0.284919307826410133E+02   -0.400312139419089945E+02
    0.129443562805385941E+02    0.788564741285399218E+00    0.467302565869250564E+00   -0.100889644705384107E+01    0.141139266973492425E+02   -0.400264558472932563E+02
    0.149158455443965678E+02    0.796002538520281355E+00    0.429240657134780934E+00   -0.593721997447648642E+00    0.210950373984955064E+02   -0.399523066334269501E+02
    0.133621177828135664E+02    0.893374180989561117E+00    0.460526995968281505E+00   -0.100014546653217495E+01    0.954816718483797899E+01   -0.399088594615424057E+02
    0.175891817653329277E+02    0.677413000739575777E+00    0.440890498381766915E+00   -0.689978157293371419E+00    0.259287490848097910E+02   -0.398320542253468304E+02
    0.121926796036640166E+02    0.914806805306623727E+00    0.452763098588218726E+00   -0.920427221662622363E+00    0.862566689222516914E+01   -0.398149873791402982E+02
    0.151015062149583983E+02    0.770444806825268391E+00    0.439022147788093897E+00   -0.694009851117047938E+00    0.280331143502038813E+02   -0.396677395532301773E+02
    0.145558484773994614E+02    0.707923717449273515E+00    0.418964141046315963E+00   -0.436876545450186893E+00    0.288600066151288850E+02   -0.396165083215238241E+02
    0.136204390590875413E+02    0.769532434090566264E+00    0.443700957877905589E+00   -0.764814557879262891E+00    0.170468615089767432E+02   -0.395851590862252678E+02
    0.148366299887073616E+02    0.778262710550074455E+00    0.455693141663688905E+00   -0.914256478025939900E+00    0.223332720313028759E+02   -0.395390725654825488E+02
    0.122571715786379016E+02    0.897402948694681291E+00    0.442617207188705897E+00   -0.794043124380898191E+00    0.115525370260130629E+02   -0.394851516959990221E+02
    0.152818330275031506E+02    0.713917624685580621E+00    0.418807385004568156E+00   -0.427052401886898636E+00    0.339052168555410702E+02   -0.393567295441059386E+02
    0.139682306764811841E+02    0.713729767218242994E+00    0.417486075964534298E+00   -0.415096061079397394E+00    0.301697414969950337E+02   -0.393429983067157707E+02
    0.117068280086043721E+02    0.774011012740052906E+00    0.424787165643184139E+00   -0.521497866488389694E+00    0.220321748245186804E+02   -0.391241521297797590E+02
    0.133883605326757973E+02    0.820754353549418836E+00    0.448892890618237617E+00   -0.813384544666210130E+00    0.194640402073067840E+02   -0.384343029814016646E+02
    0.113116799389342049E+02    0.858823984570050381E+00    0.442657943729651948E+00   -0.758411277515545157E+00    0.181154329078366914E+02   -0.374848470282674384E+02
    0.113116799389342049E+02    0.858823984570050381E+00    0.442657943729651948E+00   -0.758411277515545157E+00    0.181154329078366914E+02   -0.374848470282674384E+02
    0.133247636262699451E+02    0.786133585345410224E+00    0.444905144542508901E+00   -0.753851244663863995E+00    0.227207055404047651E+02   -0.381918401350258350E+02
    0.135610381683093735E+02    0.826014098158228571E+00    0.449052485483419028E+00   -0.844553663085990669E+00    0.180163298668519154E+02   -0.385557726495623854E+02
    0.865386192566804446E+01    0.968940169565374987E+00    0.460391822113663252E+00   -0.101042287828836241E+01    0.102806146102060367E+02   -0.379031710245922540E+02
    0.865386192566804446E+01    0.968940169565374987E+00    0.460391822113663252E+00   -0.101042287828836241E+01    0.102806146102060367E+02   -0.379031710245922540E+02
    0.115313003949551547E+02    0.854612352579310230E+00    0.436896391083627322E+00   -0.696995107704428074E+00    0.155338523841264688E+02   -0.381354822942631202E+02
    0.115313003949551547E+02    0.854612352579310230E+00    0.436896391083627322E+00   -0.696995107704428074E+00    0.155338523841264688E+02   -0.381354822942631202E+02
    0.114335155820689920E+02    0.871872770530141783E+00    0.454558520269293109E+00   -0.908928022833270233E+00    0.147186683208125970E+02   -0.378276078113754295E+02
    0.999710949186534670E+01    0.827993900080201906E+00    0.425746443971810773E+00   -0.540222440680798499E+00    0.211795355465601993E+02   -0.382957095069520150E+02
