    0.124448940823885756E+02    0.378104204721196269E+00    0.377555129921354038E+00    0.228003258199711900E+00    0.592679825880202884E+02   -0.358331051297014440E+02
    0.144175685792952546E+02    0.631130816508927883E+00    0.435977715927143072E+00   -0.618396421108869720E+00    0.426545952431685578E+02   -0.342379367624104916E+02
    0.101688932304888144E+02    0.929941087443261760E+00    0.425648865273615506E+00   -0.639366933277438654E+00    0.263578740493602481E+02   -0.341562532149355533E+02
    0.158048245387083668E+02    0.746065315847171617E+00    0.431069506174336925E+00   -0.565754626500323599E+00    0.212784182921074319E+02   -0.337808188073746152E+02
    0.981269369028790805E+01    0.501592782246030433E+00    0.382739264138852453E+00    0.185046159067741162E+00    0.508401322327189789E+02   -0.335805133540557534E+02
    0.151298533451506607E+02    0.614151692477923450E+00    0.426572753752756550E+00   -0.373953421593168578E+00    0.536995137316228792E+02   -0.321544486402292407E+02
    0.781871234789532377E+01    0.721719794712443186E+00    0.404871230613700173E+00   -0.108277339648096410E+00    0.318143011540055767E+02   -0.312649874001576151E+02
    0.890920292988184315E+01    0.824864304704180817E+00    0.445521711958812572E+00   -0.673729201233215336E+00    0.238710430523766348E+02   -0.308454933407002763E+02
    0.115592584203138244E+02    0.647876698652800176E+00    0.409039199209778770E+00   -0.140158940256204623E+00    0.539123281176873306E+02   -0.306635504661518468E+02
    0.132599654231118755E+02    0.676217040635449407E+00    0.429415931519062544E+00   -0.544782508383284458E+00    0.717917077445497824E+02   -0.306050351118721267E+02
    0.978408237872888975E+01    0.621962822997362608E+00    0.386557260878235720E+00    0.588088201274988495E-01    0.973353217278822456E+02   -0.304429794055995622E+02
    0.829990381791284193E+01    0.766682967691367234E+00    0.417489021743425504E+00   -0.373387509479433555E+00    0.785730899358305237E+02   -0.302954545647316138E+02
    0.767710070513249132E+01    0.816159702886945282E+00    0.392014455714463084E+00   -0.110286912900773686E-01    0.800229406170870163E+02   -0.302374794154649251E+02
    0.127440649364595870E+02    0.514684363376398002E+00    0.399955812808165445E+00   -0.358838896369985116E-01    0.102899004507827598E+03   -0.301351433724256381E+02
    0.106379537477574289E+02    0.629030143064153391E+00    0.399700782012519351E+00   -0.135228553691332437E+00    0.137570963520679896E+03   -0.299413044758271454E+02
    0.952242726210852375E+01    0.744060175891710585E+00    0.395887803999077081E+00   -0.996828386803975258E-01    0.818296586495170004E+02   -0.298415148458801163E+02
    0.912043330572478794E+01    0.662317232875836548E+00    0.407482759412886419E+00   -0.120985857494756377E+00    0.494974913328159190E+02   -0.297277140452402548E+02
    0.108674348312110087E+02    0.654591350255635418E+00    0.405565391709511947E+00   -0.221501285566756856E+00    0.889470614658498988E+02   -0.295885366841805606E+02
    0.136245699076201099E+02    0.721063835271892217E+00    0.436834337105142578E+00   -0.610483739563030925E+00    0.536090881636014132E+02   -0.295628518454659002E+02
    0.861463842071297314E+01    0.679084624860729513E+00    0.403516060832557477E+00   -0.880602611079082109E-01    0.525696122070750462E+02   -0.294387149104619041E+02
    0.886073461624147818E+01    0.906110844964383877E+00    0.432022252240791771E+00   -0.530670849351791096E+00    0.454486759947731827E+02   -0.291211268271097232E+02
    0.998446817589847591E+01    0.620349174047229446E+00    0.406359964794625550E+00   -0.153622289398386458E+00    0.800758432489991634E+02   -0.288537098263784522E+02
    0.115904106689705237E+02    0.876712926807190707E+00    0.454303308136147499E+00   -0.798260988604267308E+00    0.234962979979070532E+02   -0.288206867388229107E+02
    0.643864126338173026E+01    0.909611150570884819E+00    0.412199717377920993E+00   -0.245721868878326893E+00    0.372382958143938936E+02   -0.285896638989585270E+02
    0.784299755755678518E+01    0.111820236717651955E+01    0.444745210630834165E+00   -0.690895759965740708E+00    0.119383523421766853E+02   -0.285257403999213359E+02
    0.968738810107812398E+01    0.660810926682790067E+00    0.398059292546336985E+00   -0.529911583397740110E-01    0.821526113002771439E+02   -0.284323092646546058E+02
    0.904654050693793366E+01    0.741625734008330428E+00    0.406050100380621948E+00   -0.200553196091090985E+00    0.566075570665217569E+02   -0.283156606397631379E+02
    0.905413760966509251E+01    0.851807911632557535E+00    0.435328382681880788E+00   -0.532862144563036488E+00    0.225345413815309712E+02   -0.282998868347129893E+02
    0.870750469355264656E+01    0.108812808678024497E+01    0.453384904684541901E+00   -0.797295807905722853E+00    0.102688500352740810E+02   -0.282876199423250654E+02
    0.752429054080333692E+01    0.113545975990399972E+01    0.440273486145910997E+00   -0.652870179302879716E+00    0.117286805228946527E+02   -0.282006115306884304E+02
    0.102279957228004292E+02    0.792505044692549898E+00    0.426708220889682743E+00   -0.458512028577148290E+00    0.330013383615650184E+02   -0.281533882130159121E+02
    0.110967764067652155E+02    0.766469379981253862E+00    0.422581276098296155E+00   -0.410356081225900504E+00    0.492168966477293210E+02   -0.279754021025053206E+02
    0.106996202430636487E+02    0.840084100199685380E+00    0.432474497907218924E+00   -0.533052661583430787E+00    0.376171994576738200E+02   -0.278216498220771271E+02
    0.884245603484275122E+01    0.820940116132889974E+00    0.422536299528913972E+00   -0.429539703766234182E+00    0.391142509386190085E+02   -0.276997745775732049E+02
    0.942717721683020216E+01    0.973318438678283493E+00    0.429696435746958594E+00   -0.559662554290833891E+00    0.255646493039642486E+02   -0.276944811218686908E+02
    0.803275250184134748E+01    0.971470870873445858E+00    0.427538643887852898E+00   -0.512513492216414068E+00    0.351689005413389282E+02   -0.276729254867505468E+02
    0.799361448182786649E+01    0.935864153299914681E+00    0.422430807144027587E+00   -0.404414616248386038E+00    0.372185966067270400E+02   -0.276389206764158146E+02
    0.899458886802240798E+01    0.877032941789430254E+00    0.423674373455502851E+00   -0.466864383752207068E+00    0.397906084818119723E+02   -0.270047522688059907E+02
    0.899458886802240798E+01    0.877032941789430254E+00    0.423674373455502851E+00   -0.466864383752207068E+00    0.397906084818119723E+02   -0.270047522688059907E+02
    0.968641593837168458E+01    0.100095303361737886E+01    0.448599608288809681E+00   -0.764559652539348100E+00    0.156689022371713804E+02   -0.274166794762049832E+02
    0.860537663542278253E+01    0.826813176841356245E+00    0.424525822564877697E+00   -0.404402330071683747E+00    0.390180190715330681E+02   -0.271497638383886652E+02
    0.860537663542278253E+01    0.826813176841356245E+00    0.424525822564877697E+00   -0.404402330071683747E+00    0.390180190715330681E+02   -0.271497638383886652E+02
    0.969441929717610762E+01    0.100395985912030250E+01    0.440566843604594416E+00   -0.729964046215676010E+00    0.221281264239952833E+02   -0.273406866775585833E+02
    0.767120524041771024E+01    0.999900187202004798E+00    0.434992700410098021E+00   -0.619290402093494730E+00    0.151044306438039015E+02   -0.273230170381777526E+02
    0.701436857306341643E+01    0.107654703003897922E+01    0.432259545127037459E+00   -0.637321761474153536E+00    0.219481963229863943E+02   -0.273395422966147841E+02
    0.728350634798520158E+01    0.103590323123156836E+01    0.424273876520637028E+00   -0.519643499196229652E+00    0.238660760731888111E+02   -0.273731411193601666E+02
    0.850983476248351423E+01    0.873487499324063998E+00    0.429213857488617734E+00   -0.516581532097328489E+00    0.401513878269215070E+02   -0.270279927160025402E+02
    0.850983476248351423E+01    0.873487499324063998E+00    0.429213857488617734E+00   -0.516581532097328489E+00    0.401513878269215070E+02   -0.270279927160025402E+02
    0.743559936065241533E+01    0.110631469147057016E+01    0.449798866260148922E+00   -0.797323173540296581E+00    0.793021961496590411E+01   -0.271691922390139595E+02
    0.743559936065241533E+01    0.110631469147057016E+01    0.449798866260148922E+00   -0.797323173540296581E+00    0.793021961496590411E+01   -0.271691922390139595E+02
    0.854500719174827594E+01    0.103072561027501286E+01    0.447326574452367343E+00   -0.726874087466761187E+00    0.132220068756780655E+02   -0.271799696155841843E+02
    0.854500719174827594E+01    0.103072561027501286E+01    0.447326574452367343E+00   -0.726874087466761187E+00    0.132220068756780655E+02   -0.271799696155841843E+02
