    0.810060279458200938E+01    0.313589908928598948E+00    0.368766521981415740E+00    0.498548563264832267E+00    0.686044995769706958E+02   -0.384523037678028814E+02
    0.335234143789462991E+01    0.102250193522888022E+01    0.402769321558239579E+00    0.322561571496393779E-01    0.467907287361685889E+02   -0.383984803115428335E+02
    0.102673334107991536E+02    0.515131507248578702E+00    0.399131551763959813E+00    0.965153497726080056E-01    0.106105211071684863E+03   -0.383158848850089129E+02
    0.823170726694376498E+01    0.402860662961251614E+00    0.406948347414205436E+00    0.146956195579342613E+00    0.133350571166114662E+03   -0.378382068919315984E+02
    0.714477690520563335E+01    0.411719183417686041E+00    0.403550037857421162E+00    0.226492389504162173E+00    0.141061070696952214E+03   -0.378099280321623468E+02
    0.865799950891179471E+01    0.504570678926071770E+00    0.399346522375860102E+00    0.139619353241124455E+00    0.105409748921385599E+03   -0.369414222833332815E+02
    0.888632266459061348E+01    0.356668808429299766E+00    0.394918508861383855E+00    0.204727723846898135E+00    0.125172542673458025E+03   -0.365337985113349859E+02
    0.574986850643110703E+01    0.520399025201548016E+00    0.386265812955746746E+00    0.369280808155180440E+00    0.106349844771941704E+03   -0.364501344263769482E+02
    0.591864581735102568E+01    0.484039880878860074E+00    0.390696403012186944E+00    0.297719663209547236E+00    0.834320758097795334E+02   -0.363466744234269470E+02
    0.101546008820548934E+02    0.532582466759668249E+00    0.426495557096793931E+00   -0.295489882794913394E+00    0.672886551900385115E+02   -0.361580270617954227E+02
    0.568062379053572286E+01    0.544422725193050572E+00    0.364759417620866444E+00    0.536834298253153097E+00    0.960472062699941347E+02   -0.360920126216655888E+02
    0.554378063783305741E+01    0.651020268178113759E+00    0.388172877108905801E+00    0.217938565713142074E+00    0.360687812058847399E+02   -0.357569691966137881E+02
    0.699525646684399849E+01    0.534460746785294427E+00    0.402977144718833002E+00    0.696813706878880307E-01    0.560026961151329346E+02   -0.356792391015037893E+02
    0.770086042429131901E+01    0.508325227747019603E+00    0.394717342267258353E+00    0.154968579037184417E+00    0.753027641775867949E+02   -0.353732938369293421E+02
    0.593962565826151234E+01    0.671001430560400625E+00    0.411677333458170536E+00   -0.195309361762510195E-01    0.449544448651559492E+02   -0.349110898925607245E+02
    0.593962565826151234E+01    0.671001430560400625E+00    0.411677333458170536E+00   -0.195309361762510195E-01    0.449544448651559492E+02   -0.349110898925607245E+02
    0.620939027039605129E+01    0.917335471513422762E+00    0.411661926112276533E+00   -0.139698475953701384E+00    0.349700796133894798E+02   -0.348455693905856023E+02
    0.620939027039605129E+01    0.917335471513422762E+00    0.411661926112276533E+00   -0.139698475953701384E+00    0.349700796133894798E+02   -0.348455693905856023E+02
    0.429720268238950265E+01    0.654900800281807527E+00    0.398577875294369388E+00    0.181786923115140109E+00    0.948674043906163433E+02   -0.348017453490767323E+02
    0.479576312811364414E+01    0.687350809636108839E+00    0.393343252079378647E+00    0.149712974014988676E+00    0.358391725941022372E+02   -0.348007770703826793E+02
    0.723943986327191702E+01    0.775306973300711300E+00    0.442878558402617806E+00   -0.443085283465136592E+00    0.481664942567922196E+02   -0.347971927475494880E+02
    0.705100024049198026E+01    0.537588313070428647E+00    0.388247870287707464E+00    0.235809545221534966E+00    0.858667275265496954E+02   -0.345942869552660071E+02
    0.440271216683870392E+01    0.824932986068666496E+00    0.435869190218875879E+00   -0.295470497991945247E+00    0.580491782296480636E+02   -0.345805462340106970E+02
    0.389095716895105381E+01    0.853818303626243447E+00    0.404248404024766306E+00    0.455629414498333468E-01    0.740651120771269973E+02   -0.345555091065118489E+02
    0.389095716895105381E+01    0.853818303626243447E+00    0.404248404024766306E+00    0.455629414498333468E-01    0.740651120771269973E+02   -0.345555091065118489E+02
    0.706037460610855572E+01    0.594991859260067257E+00    0.383336311487410375E+00    0.270916457535011646E+00    0.982430538434955167E+02   -0.345134472115467332E+02
    0.579898974186412808E+01    0.543318317680897889E+00    0.392344439324484373E+00    0.244458614950958775E+00    0.929557073483493923E+02   -0.343864673213981362E+02
    0.616273098625276106E+01    0.818499687080484595E+00    0.425069686140511493E+00   -0.224276267394237561E+00    0.482451859290149585E+02   -0.342496580161327273E+02
    0.667796389944074242E+01    0.621112025215391772E+00    0.401499386194605679E+00    0.355611931799009046E-01    0.472437432882733930E+02   -0.342469075803927510E+02
    0.456697547887813826E+01    0.752594205657951987E+00    0.379181992294015890E+00    0.335489995764305937E+00    0.843045091064874725E+02   -0.341094614326488639E+02
    0.740083641481966659E+01    0.717180249445125040E+00    0.429859615448621557E+00   -0.302111111198464455E+00    0.429973335911890615E+02   -0.341043624858135601E+02
    0.444564194007713720E+01    0.877637993857016574E+00    0.401210102954456083E+00    0.378834471329232269E-02    0.214192076765143149E+02   -0.339717882399278821E+02
    0.646940470488125552E+01    0.558200563104653713E+00    0.382592462801515154E+00    0.323913226562174250E+00    0.122535274768528978E+03   -0.339624546552883331E+02
    0.691118800501267039E+01    0.547116834856186340E+00    0.400279035959667961E+00    0.989306198329118064E-01    0.846536184351025014E+02   -0.337878450620165438E+02
    0.542978286215006811E+01    0.523290721887031962E+00    0.375582842002906925E+00    0.444311326875917734E+00    0.200285111676474685E+03   -0.336083267164772224E+02
    0.624508172207612233E+01    0.669674048519533605E+00    0.399554410075122379E+00    0.559832629044364552E-01    0.482448311890632482E+02   -0.335917262245017980E+02
    0.523502197620452314E+01    0.757749681722379775E+00    0.398233088618562159E+00    0.114305226241150429E+00    0.779039939417982623E+02   -0.333483636701497659E+02
    0.541920354312073549E+01    0.650132975842099059E+00    0.398495842427138869E+00    0.120453426812432401E+00    0.627661957686497658E+02   -0.333437764973604374E+02
    0.469457130079999629E+01    0.660577662816872802E+00    0.384959234603594269E+00    0.302957364797807271E+00    0.109372504599709615E+03   -0.332847570845761567E+02
    0.561937700363997727E+01    0.563787376301053800E+00    0.393158619220021599E+00    0.186857427353162270E+00    0.859748516574087205E+02   -0.330982252844902405E+02
    0.541363791492543278E+01    0.588911598955901727E+00    0.383569525126121802E+00    0.295606102651108926E+00    0.905913895057507403E+02   -0.330317824228738459E+02
    0.532663422669465447E+01    0.659771555900676487E+00    0.411863235837240216E+00   -0.763329996335183336E-01    0.576120884383757712E+02   -0.329690705913830726E+02
    0.398926488853677874E+01    0.782399358685803459E+00    0.396411245236539589E+00    0.125863723712969833E+00    0.778889400734929325E+02   -0.327251267529392393E+02
    0.443145121083744264E+01    0.684344525058134256E+00    0.396702739514525837E+00    0.991479559496210444E-01    0.707879225455788230E+02   -0.326539657231254665E+02
    0.676856109182054411E+01    0.506504608123580891E+00    0.389387755779974698E+00    0.236766705704126168E+00    0.146700191315078143E+03   -0.326020808727426257E+02
    0.556733497493652596E+01    0.546732038143153409E+00    0.392947524761404654E+00    0.218468631126490120E+00    0.159375430710336076E+03   -0.324723969232281746E+02
    0.441034499715300754E+01    0.942782162389717793E+00    0.413498311955759146E+00   -0.146127417439273183E+00    0.255047677917928723E+02   -0.317541418193849836E+02
    0.441034499715300754E+01    0.942782162389717793E+00    0.413498311955759146E+00   -0.146127417439273183E+00    0.255047677917928723E+02   -0.317541418193849836E+02
    0.621288400614016645E+01    0.557194066486552342E+00    0.383343863551096120E+00    0.245421077533608201E+00    0.909701211913720300E+02   -0.323407923726387097E+02
    0.426694856588994753E+01    0.102077638537113824E+01    0.412478911326983222E+00   -0.149493338449291913E+00    0.240491239097017271E+02   -0.321014717268248049E+02
    0.657261712494558381E+01    0.510177321992525190E+00    0.393642886847315188E+00    0.174852676939754648E+00    0.121229026997580235E+03   -0.324674411853430698E+02
    0.618278956431587368E+01    0.542293843446897905E+00    0.382389976873546367E+00    0.295248599107832188E+00    0.133189269139653220E+03   -0.319089569878641193E+02
    0.618278956431587368E+01    0.542293843446897905E+00    0.382389976873546367E+00    0.295248599107832188E+00    0.133189269139653220E+03   -0.319089569878641193E+02
    0.563620151407628178E+01    0.612315356772535235E+00    0.383116456947198036E+00    0.253444292025701179E+00    0.845079735074263851E+02   -0.321400103420801955E+02
    0.687215567003619920E+01    0.515206328777943812E+00    0.390217519253336920E+00    0.162268854195372236E+00    0.108842230283934654E+03   -0.320956291068923818E+02
    0.687215567003619920E+01    0.515206328777943812E+00    0.390217519253336920E+00    0.162268854195372236E+00    0.108842230283934654E+03   -0.320956291068923818E+02
    0.555340646783538894E+01    0.686756356054492145E+00    0.389378963710668269E+00    0.194121857850266505E+00    0.905557085432443643E+02   -0.320235760954012889E+02
    0.555340646783538894E+01    0.686756356054492145E+00    0.389378963710668269E+00    0.194121857850266505E+00    0.905557085432443643E+02   -0.320235760954012889E+02
    0.695733169722282874E+01    0.627924314886779023E+00    0.407533468823352341E+00   -0.409606851789742488E-01    0.944908966019254706E+02   -0.317365567555503780E+02
    0.695733169722282874E+01    0.627924314886779023E+00    0.407533468823352341E+00   -0.409606851789742488E-01    0.944908966019254706E+02   -0.317365567555503780E+02
    0.730558143180581965E+01    0.600880100508531134E+00    0.413379412394389745E+00   -0.101690006933248950E+00    0.106042156264970160E+03   -0.322909376225198059E+02
