    0.115359620291705642E+02    0.886638575987826333E-01    0.347161798007044331E+00    0.827407098018874021E+00    0.592942992405070186E+03   -0.526641423227621814E+02
    0.149060810778386781E+02    0.180862205939449239E+00    0.387682668466784175E+00    0.186608201768969362E+00    0.203292911742508807E+03   -0.516761035772459820E+02
    0.131785604463958048E+02    0.200117985174656149E+00    0.366280520188983771E+00    0.429648714420291511E+00    0.282109569199820612E+03   -0.504845290127955337E+02
    0.146854378144745219E+02    0.361763555609936449E+00    0.405345567373119997E+00   -0.178282636145744300E+00    0.107063927079179621E+03   -0.496951440117023324E+02
    0.140605818545596186E+02    0.461646717823692432E+00    0.437018953928136611E+00   -0.527370017792993195E+00    0.452196171459574927E+02   -0.494453203347391366E+02
    0.106877023519001746E+02    0.292231490266379679E+00    0.395263551426611404E+00    0.116758435479981729E+00    0.218379621630232180E+03   -0.489559886432086557E+02
    0.115480263393644904E+02    0.398149537995628799E+00    0.406282322325740353E+00   -0.118642631950508476E+00    0.179615895055322710E+03   -0.489438289781973026E+02
    0.109837129837495873E+02    0.533217206911339781E+00    0.408023955779490244E+00   -0.229177639328182026E+00    0.117302027306136921E+03   -0.483979365620496793E+02
    0.101448034517800902E+02    0.289457223402980857E+00    0.375032725176619786E+00    0.325413628625552620E+00    0.232360778004733845E+03   -0.482830215152418489E+02
    0.101448034517800902E+02    0.289457223402980857E+00    0.375032725176619786E+00    0.325413628625552620E+00    0.232360778004733845E+03   -0.482830215152418489E+02
    0.117990658074566142E+02    0.393884978951076326E+00    0.390097524673810148E+00    0.213427079005905386E-01    0.166742970673175762E+03   -0.482504034591049091E+02
    0.104884769555283590E+02    0.331855303498226506E+00    0.399130297920269661E+00    0.120583009262625121E+00    0.135606316260808029E+03   -0.482126062407175979E+02
    0.107138059457942951E+02    0.496263921997837198E+00    0.407705281308367806E+00   -0.162025651188568487E+00    0.412552996917237564E+02   -0.480252029144580916E+02
    0.110517493699468332E+02    0.548817735758545089E+00    0.409739123918625325E+00   -0.197858120582359243E+00    0.761502826246134816E+02   -0.479482306691168105E+02
    0.111547097806920750E+02    0.317450247970059052E+00    0.384928787710628606E+00    0.231612989725677787E+00    0.128700491266976712E+03   -0.478239666337381379E+02
    0.111547097806920750E+02    0.317450247970059052E+00    0.384928787710628606E+00    0.231612989725677787E+00    0.128700491266976712E+03   -0.478239666337381379E+02
    0.117332600215927236E+02    0.402793444772220011E+00    0.414309983893752454E+00   -0.217241128675060263E+00    0.139535142254256840E+03   -0.478005265633665317E+02
    0.959835934162098425E+01    0.331952375877671291E+00    0.373973740646846020E+00    0.346121409087792042E+00    0.253005658307867009E+03   -0.477695532838095005E+02
    0.114983606351491474E+02    0.596968826544223230E+00    0.415175279437070888E+00   -0.365252579187989312E+00    0.586761004066535605E+02   -0.477002219450292060E+02
    0.112030211797504435E+02    0.285811801934046594E+00    0.383015813313340836E+00    0.253538318740638924E+00    0.180294636489013726E+03   -0.475827379653110327E+02
    0.107464773804797353E+02    0.294369633324968683E+00    0.376341640564863744E+00    0.328522410227521044E+00    0.180326317025959383E+03   -0.475826910288640832E+02
    0.100299609182028231E+02    0.526934497373692912E+00    0.420135938871274373E+00   -0.261085485117277194E+00    0.450572052620868106E+02   -0.475069831318288749E+02
    0.967241622331034989E+01    0.376296442064117220E+00    0.385896065407768163E+00    0.197229953178999357E+00    0.208019503445862824E+03   -0.474898430068525528E+02
    0.105422734306848707E+02    0.317029406329014107E+00    0.385673280954912046E+00    0.249256104186652394E+00    0.180446378131420659E+03   -0.474589907853576563E+02
    0.112225378401082256E+02    0.478128917788335717E+00    0.399804403388911600E+00   -0.433655154940646506E-01    0.943277793240110469E+02   -0.473869897354028780E+02
    0.114959846105438785E+02    0.369094480698306249E+00    0.390851800551901274E+00    0.119114306290928909E+00    0.110528814940370353E+03   -0.473622653050227100E+02
    0.109747795929956293E+02    0.341410331153221280E+00    0.394159617370327786E+00    0.578586514877007796E-01    0.152269620131003876E+03   -0.473406384558933908E+02
    0.986739950753761264E+01    0.579144072949362321E+00    0.439373643502822764E+00   -0.516585846080378386E+00    0.392200750899294874E+02   -0.472935850649131950E+02
    0.128299906731302400E+02    0.393586644192880586E+00    0.410395991018569106E+00   -0.180089452145401285E+00    0.107912770377500777E+03   -0.470928003820793606E+02
    0.106426547592973897E+02    0.428641584670028553E+00    0.402405341421465002E+00   -0.700369802419364418E-01    0.737891512658777202E+02   -0.467196661934492781E+02
    0.115328700247116309E+02    0.383368134045297737E+00    0.398175366447565515E+00   -0.295362377077147721E-01    0.143816091478763411E+03   -0.467114649917130009E+02
    0.109845220829348591E+02    0.447220323189214619E+00    0.407877006145565491E+00   -0.127709233518920107E+00    0.119764889647318881E+03   -0.465000998881960470E+02
    0.103569439873628948E+02    0.492590304766425624E+00    0.395883286702382320E+00   -0.172098401727568580E-01    0.973744057667290406E+02   -0.463984825563578198E+02
    0.953097480284758625E+01    0.399021655026921884E+00    0.400379087983463722E+00    0.250217878087327338E-01    0.128670010580773322E+03   -0.463388323296469125E+02
    0.116431608857683759E+02    0.515556609196392568E+00    0.428158738360865043E+00   -0.451189415770003599E+00    0.624324172313718293E+02   -0.463224264676659843E+02
    0.102018502350927509E+02    0.473465388795719588E+00    0.413505895878886420E+00   -0.215596848486680981E+00    0.114411149009679605E+03   -0.462701080346709972E+02
    0.887645518089113672E+01    0.508589987331713012E+00    0.390066096348704872E+00    0.454913457407733340E-01    0.909471931388602712E+02   -0.462412488825407166E+02
    0.834418494405729305E+01    0.487282409526288818E+00    0.404566113432844210E+00   -0.516660552444662899E-01    0.107382469509191935E+03   -0.462232325492406559E+02
    0.965223815590843159E+01    0.454419268928675846E+00    0.398742164401969856E+00   -0.934153655778851969E-03    0.779441235479236667E+02   -0.462206216849299665E+02
    0.910618329526000103E+01    0.486042675643248046E+00    0.403665735611735244E+00   -0.994351699636997072E-01    0.951716045980465566E+02   -0.453472348674155015E+02
    0.910618329526000103E+01    0.486042675643248046E+00    0.403665735611735244E+00   -0.994351699636997072E-01    0.951716045980465566E+02   -0.453472348674155015E+02
    0.101712176966316541E+02    0.541542435773652020E+00    0.408935935380521198E+00   -0.246895649479405788E+00    0.848898297114737233E+02   -0.457377537223315329E+02
    0.911609484289265559E+01    0.481293912879078412E+00    0.392471336456123310E+00    0.487679438505000951E-01    0.109880288010988551E+03   -0.456627335305501774E+02
    0.911609484289265559E+01    0.481293912879078412E+00    0.392471336456123310E+00    0.487679438505000951E-01    0.109880288010988551E+03   -0.456627335305501774E+02
    0.108694318328961330E+02    0.547700876700450867E+00    0.431468579742380287E+00   -0.503736060016692799E+00    0.667724965172160694E+02   -0.461709367318347645E+02
    0.947397682513904904E+01    0.583802029124077859E+00    0.410378529540623704E+00   -0.246046463130887405E+00    0.728737276802696101E+02   -0.454778237470685767E+02
    0.944433545730970891E+01    0.503106974139473584E+00    0.396208202472646598E+00   -0.141459236095886880E-01    0.814219644577548962E+02   -0.458788873783728377E+02
    0.106374931803486863E+02    0.436074431126295736E+00    0.400487815686528414E+00   -0.500655451130065030E-01    0.122013853865450443E+03   -0.457772689598180449E+02
    0.105230661391139311E+02    0.556391150120002065E+00    0.420898426694562400E+00   -0.376009882160241449E+00    0.472069209555812463E+02   -0.460510720761606720E+02
    0.100067038540448117E+02    0.517958409863060520E+00    0.400400888177111614E+00   -0.124094064816786864E+00    0.904550720636761838E+02   -0.459206805846879789E+02
