    0.648846977269379188E+01    0.261282008796506038E+00    0.364567281930000708E+00    0.655641404037336395E+00    0.281512064083226676E+03   -0.377826634665699217E+02
    0.701161704474792913E+01    0.391896817835882816E+00    0.357250188616007158E+00    0.618221511006953106E+00    0.186873590255227867E+03   -0.339566512997580148E+02
    0.109033512391759757E+02    0.621449685750032899E+00    0.414011645298515030E+00   -0.251823318024707088E+00    0.108067913957614451E+03   -0.335330942040303199E+02
    0.741767088885018389E+01    0.512526080392661343E+00    0.391548149920197541E+00    0.261083097366971495E+00    0.198571647028042293E+03   -0.327643199986937717E+02
    0.101898727764273005E+02    0.743125092221554318E+00    0.430976968992068221E+00   -0.484403706132781886E+00    0.100111816801849244E+03   -0.325493677251663200E+02
    0.825162423688845337E+01    0.566677849558827718E+00    0.399793778236292363E+00    0.116822096335005551E+00    0.149761192152234941E+03   -0.324948903579459696E+02
    0.869590839287569040E+01    0.621238441281051101E+00    0.411925340354349467E+00   -0.575467186650104878E-01    0.137870941501285529E+03   -0.324546810266565444E+02
    0.114501394224827600E+02    0.705368907421255464E+00    0.419944335977781857E+00   -0.349874261695775624E+00    0.950590855874771137E+02   -0.322814175889954100E+02
    0.593422230343930845E+01    0.611675709623227482E+00    0.384063127187993458E+00    0.240652097723066005E+00    0.128867677856586170E+03   -0.320474009436984275E+02
    0.100934440105837027E+02    0.558176689134662340E+00    0.388161178250544359E+00    0.968617050573879895E-01    0.225734081518892054E+03   -0.317198180058557639E+02
    0.761339579098504871E+01    0.484612333826003827E+00    0.380080537076062708E+00    0.350803734571253079E+00    0.230960026524247638E+03   -0.314637812334368974E+02
    0.975624650572035002E+01    0.814617544278405381E+00    0.427362833084853233E+00   -0.410523174362883103E+00    0.544487451429000018E+02   -0.312129257418959085E+02
    0.659455659134166794E+01    0.576182936702901216E+00    0.371893916074069131E+00    0.337183198682751373E+00    0.194508257958190853E+03   -0.310340594112936223E+02
    0.965173180107987960E+01    0.793581510285657932E+00    0.430212541478403876E+00   -0.471989483720607450E+00    0.666982110115504270E+02   -0.310084647146400805E+02
    0.910526912827809909E+01    0.841854466634895271E+00    0.412143417175234450E+00   -0.234926194020818546E+00    0.738078817299279848E+02   -0.309714959365565541E+02
    0.758601445810776198E+01    0.105234193266937148E+01    0.424726212678110615E+00   -0.465809375489844302E+00    0.177355584617146960E+02   -0.308539408313043886E+02
    0.541592115300297561E+01    0.823973904930095924E+00    0.399265122820479490E+00   -0.830011698277889898E-01    0.115055112324721932E+03   -0.306786408882723549E+02
    0.854480020984900790E+01    0.815097414918757202E+00    0.414458985850765960E+00   -0.225491678891348885E+00    0.625371198497916296E+02   -0.304112765479164295E+02
    0.677201002631510285E+01    0.694083356190213330E+00    0.398550629159534153E+00    0.181505022632664180E-01    0.950873226613797158E+02   -0.303981842047940809E+02
    0.660032567646786816E+01    0.860906362194119867E+00    0.425497529111290462E+00   -0.268006494599188239E+00    0.626088315476927306E+02   -0.303218357317672975E+02
    0.567838639271209455E+01    0.735216377878980420E+00    0.396389582363565252E+00    0.311665621246693253E-01    0.123063206495160898E+03   -0.302213285839443380E+02
    0.751898963261012820E+01    0.106338888954446786E+01    0.424830660088803824E+00   -0.462729387920030599E+00    0.374879163547442502E+02   -0.301735469824355604E+02
    0.686512491755053489E+01    0.641299449809643041E+00    0.394315598003636414E+00    0.127121894941472469E+00    0.146015616878276120E+03   -0.301618105641063075E+02
    0.814745193985725535E+01    0.667088232661578573E+00    0.392357873493928533E+00    0.489497239316444843E-01    0.129182959685435463E+03   -0.300896154163614291E+02
    0.587816385679912212E+01    0.824885370323854006E+00    0.403732579908733624E+00   -0.113867008728285812E+00    0.635982429788318058E+02   -0.299862347455718776E+02
    0.557895736955954291E+01    0.907305013002433269E+00    0.397630155507409433E+00   -0.105662084080739072E+00    0.613161597776540077E+02   -0.299562860099398129E+02
    0.840211068436131470E+01    0.726859190692900947E+00    0.402887010699632564E+00   -0.855525910051601057E-01    0.977611281392685783E+02   -0.299225894409307784E+02
    0.833408134467235584E+01    0.865700356680956462E+00    0.425319513063971810E+00   -0.382323176960810973E+00    0.637461842167316135E+02   -0.296145876273545845E+02
    0.789099141777327695E+01    0.781995964404842980E+00    0.413124291994323989E+00   -0.248915450199635013E+00    0.108257420860867114E+03   -0.294875475234186872E+02
    0.680033931764238186E+01    0.958362556038061530E+00    0.430483579245457493E+00   -0.461740978217379527E+00    0.613376034142334916E+02   -0.292448953080915111E+02
    0.700444268022869831E+01    0.703390628485055625E+00    0.393849707889312117E+00    0.716722888136685915E-01    0.160468527431649363E+03   -0.291308900714371148E+02
    0.713163750451668044E+01    0.865406132650643145E+00    0.401132298365693196E+00   -0.137809090206986784E+00    0.782766046162343514E+02   -0.290276190338776843E+02
    0.699073708818903405E+01    0.787720890407154428E+00    0.406626361892248100E+00   -0.104007882815698019E+00    0.791013570244183057E+02   -0.289985134652053773E+02
    0.433930887192299064E+01    0.119095952065799371E+01    0.432580425999228191E+00   -0.457323028481086413E+00    0.237741065683738348E+02   -0.288499137178176781E+02
    0.514711681835120594E+01    0.107243843696828178E+01    0.424572986667766994E+00   -0.431629279519555820E+00    0.202184282893767140E+02   -0.284668655001033066E+02
    0.752544277757749036E+01    0.108178585516301573E+01    0.448274793927050164E+00   -0.745159880392727403E+00    0.210974228199679317E+02   -0.284038799862510771E+02
    0.752544277757749036E+01    0.108178585516301573E+01    0.448274793927050164E+00   -0.745159880392727403E+00    0.210974228199679317E+02   -0.284038799862510771E+02
    0.454554030197025138E+01    0.122488475100207439E+01    0.425445650493649685E+00   -0.504429154497442411E+00    0.304046218242930166E+02   -0.283821135559746018E+02
    0.478479444384879837E+01    0.989103414341315768E+00    0.414412123357058793E+00   -0.266723615910680167E+00    0.546749722396736573E+02   -0.283284791031401362E+02
    0.535207310700260219E+01    0.119087038903853060E+01    0.430680528103764837E+00   -0.557425728193504888E+00    0.107815919091571999E+02   -0.283120079296303935E+02
    0.547289709967080373E+01    0.872931051783034206E+00    0.403441718108654590E+00   -0.903258352608754672E-01    0.100702506143657502E+03   -0.283112011887084449E+02
    0.572730316048325783E+01    0.101924521347112940E+01    0.423509378730400343E+00   -0.391651328465776882E+00    0.253437554003165282E+02   -0.281881130174581891E+02
    0.666990638405795710E+01    0.946259031851895416E+00    0.414675842250459670E+00   -0.327050898654131950E+00    0.685561017649245912E+02   -0.281047185759386338E+02
    0.479962468969326839E+01    0.103416390655164814E+01    0.416510996861989335E+00   -0.299470622636717476E+00    0.339936473555777923E+02   -0.279981378904865750E+02
    0.701398020845628700E+01    0.100646557026260819E+01    0.424612717237540460E+00   -0.448000838790299061E+00    0.344264373665639170E+02   -0.279016175173164420E+02
    0.646949049206239124E+01    0.107903901898189369E+01    0.421756581228985516E+00   -0.420302387311485726E+00    0.308986570828137630E+02   -0.278754237775272031E+02
    0.470056852336890874E+01    0.117765142253860011E+01    0.422553655872356881E+00   -0.461777984829806254E+00    0.343086517839117278E+02   -0.276628110577372048E+02
    0.453178043156636434E+01    0.125502933099378366E+01    0.423854801761858579E+00   -0.441925007681062909E+00    0.140256411252686739E+02   -0.276019455587728153E+02
    0.511757299642553320E+01    0.108251461731330867E+01    0.429095795469236485E+00   -0.501521576259533419E+00    0.415997897881574090E+02   -0.276018154690841016E+02
    0.577462786635154934E+01    0.106063111435260748E+01    0.430091752734413246E+00   -0.503538034627914355E+00    0.423757059371936293E+02   -0.273527758775326930E+02
    0.522274942490350291E+01    0.128738681197866334E+01    0.433744130811225814E+00   -0.616629474581300019E+00    0.120374073759193028E+02   -0.271324781812805398E+02
    0.516825144068248932E+01    0.108039960620687880E+01    0.416723265803335685E+00   -0.344835313081937322E+00    0.450319612158439782E+02   -0.271839162562102601E+02
    0.516137765356350986E+01    0.122942465500821396E+01    0.427131997955870479E+00   -0.506486586287791196E+00    0.132207617147416965E+02   -0.275785221749297769E+02
    0.475088900646800383E+01    0.134040778636204938E+01    0.437144651832584885E+00   -0.686837357163601503E+00    0.124640366421725410E+02   -0.266716408979531678E+02
    0.475088900646800383E+01    0.134040778636204938E+01    0.437144651832584885E+00   -0.686837357163601503E+00    0.124640366421725410E+02   -0.266716408979531678E+02
    0.548726670691310048E+01    0.107960507298359332E+01    0.421942775763246736E+00   -0.428875540511736597E+00    0.350783826784827824E+02   -0.267448942207513625E+02
    0.548726670691310048E+01    0.107960507298359332E+01    0.421942775763246736E+00   -0.428875540511736597E+00    0.350783826784827824E+02   -0.267448942207513625E+02
    0.550940331314358644E+01    0.103388639353522538E+01    0.416985440942206131E+00   -0.293115165945537104E+00    0.355382940214460490E+02   -0.273507118139960390E+02
    0.541195426073856023E+01    0.123591416165321033E+01    0.431442062251452318E+00   -0.627257691711842869E+00    0.180341158606984742E+02   -0.270051642385608304E+02
    0.541195426073856023E+01    0.123591416165321033E+01    0.431442062251452318E+00   -0.627257691711842869E+00    0.180341158606984742E+02   -0.270051642385608304E+02
    0.676846724057610327E+01    0.109035836617637161E+01    0.436622721578212802E+00   -0.646469955133703422E+00    0.309792548779803241E+02   -0.274689447437158378E+02
    0.543304568360691587E+01    0.992764963219320284E+00    0.422103361443049774E+00   -0.357181732014689668E+00    0.534305786917276038E+02   -0.274936605155046898E+02
