    0.648091843704998638E+01    0.492853595130118560E+00    0.410338382779416033E+00   -0.181011102800724799E+00    0.741319348596535743E+01   -0.209502776028521929E+02
    0.627831575365045769E+01    0.563072444292614716E+00    0.421129413134074537E+00   -0.290413372716658125E+00    0.740886132335726799E+01   -0.199791726501608657E+02
    0.348086934535174031E+01    0.943924404183861032E+00    0.434560440963204730E+00   -0.448226025468646316E+00    0.307128419543310560E+01   -0.194338867396737349E+02
    0.619512102047735702E+01    0.376386528056951386E+00    0.382183063686284796E+00    0.169649491835688643E+00    0.183852828108897199E+02   -0.193066193106755435E+02
    0.447026399561796595E+01    0.499649229046708165E+00    0.394868908281889530E+00    0.692434498620927152E-01    0.126723563511480961E+02   -0.191594599562491332E+02
    0.447026399561796595E+01    0.499649229046708165E+00    0.394868908281889530E+00    0.692434498620927152E-01    0.126723563511480961E+02   -0.191594599562491332E+02
    0.506588308082724303E+01    0.526809743092786942E+00    0.399215975448485638E+00   -0.468206621647843726E-01    0.178156236503712293E+02   -0.191561466657566228E+02
    0.609545509453779033E+01    0.526912993794262596E+00    0.409273072369484625E+00   -0.169947657393551887E+00    0.967348160217431463E+01   -0.191306156070737430E+02
    0.643281084816328796E+01    0.747735256618418331E+00    0.437748218078897466E+00   -0.606610956031331972E+00    0.584721250721476959E+01   -0.190807051176516218E+02
    0.652821585457835596E+01    0.712417415255383379E+00    0.424669824919475858E+00   -0.414025764201472191E+00    0.861483754344948416E+01   -0.190288676690625245E+02
    0.652821585457835596E+01    0.712417415255383379E+00    0.424669824919475858E+00   -0.414025764201472191E+00    0.861483754344948416E+01   -0.190288676690625245E+02
    0.496620391191662769E+01    0.533871129310941606E+00    0.388052200621336996E+00    0.593861195801277109E-01    0.177099412091198616E+02   -0.188818820213908261E+02
    0.420729367350800931E+01    0.758257144497797131E+00    0.402127535165343220E+00   -0.134356202467812769E+00    0.119803005423647662E+02   -0.187941021111708082E+02
    0.476676713703857935E+01    0.440576057022281475E+00    0.382191102929955284E+00    0.257135908865433693E+00    0.150099701040948403E+02   -0.187490883463785210E+02
    0.546160203299633995E+01    0.836201129582217484E+00    0.426810757171603328E+00   -0.433915195287038202E+00    0.352303059536804497E+01   -0.186525907594943696E+02
    0.623545840842259125E+01    0.734960496864791257E+00    0.431096083417002729E+00   -0.506024074252178879E+00    0.533886622166282354E+01   -0.186328466238127817E+02
    0.435020573111185005E+01    0.839020078578589623E+00    0.401608053501841922E+00   -0.103316575793099191E+00    0.651897884129054184E+01   -0.185191778278217214E+02
    0.435020573111185005E+01    0.839020078578589623E+00    0.401608053501841922E+00   -0.103316575793099191E+00    0.651897884129054184E+01   -0.185191778278217214E+02
    0.391410467147178220E+01    0.596937078612811645E+00    0.381481156350155004E+00    0.202847306239989339E+00    0.148596300846000364E+02   -0.184885505221062125E+02
    0.543771263298453356E+01    0.463296750629958343E+00    0.394317056874530614E+00    0.813984091159080381E-01    0.143723542158905033E+02   -0.183258531565063905E+02
    0.459024779156010077E+01    0.849515275625877475E+00    0.407039430475387543E+00   -0.185820604237357273E+00    0.589776409118328360E+01   -0.181837674275529189E+02
    0.490288042511626987E+01    0.705837836696040166E+00    0.405481320946184609E+00   -0.100928461094460090E+00    0.788248156193624361E+01   -0.180457442798068008E+02
    0.425792759686462841E+01    0.641014355144660319E+00    0.391066957021861283E+00    0.848740601289348640E-01    0.977993065349000368E+01   -0.180268733194808384E+02
    0.504998503876477045E+01    0.870750607655325415E+00    0.416964006701102619E+00   -0.357799710778431757E+00    0.582116972852421100E+01   -0.179420499210149096E+02
    0.446237240227619125E+01    0.618830750832688459E+00    0.395239116151286041E+00    0.176816096071238382E-01    0.150352498796978473E+02   -0.179214705792538034E+02
    0.420954681573851985E+01    0.583342983155723083E+00    0.389368276723776274E+00    0.106754363395358945E+00    0.126546754288403083E+02   -0.179006606488781408E+02
    0.532748498714660279E+01    0.708286995360273952E+00    0.410331930611241791E+00   -0.201489995583252757E+00    0.739777303898049077E+01   -0.176703240474255416E+02
    0.486875969496347061E+01    0.749063325547931536E+00    0.418356917623763647E+00   -0.282294075381562648E+00    0.755420138682534592E+01   -0.175606085180543374E+02
    0.495535491143749685E+01    0.731833025344440280E+00    0.419627718945279116E+00   -0.295437167052917782E+00    0.808627855417402053E+01   -0.177339321432017876E+02
    0.401896736890442252E+01    0.682056460768211359E+00    0.395893641903768800E+00   -0.116960860434029840E-01    0.107553377258017075E+02   -0.176017202183099783E+02
    0.401896736890442252E+01    0.682056460768211359E+00    0.395893641903768800E+00   -0.116960860434029840E-01    0.107553377258017075E+02   -0.176017202183099783E+02
    0.512577350349155836E+01    0.722019661525584167E+00    0.402013623074472470E+00   -0.131871559451210763E+00    0.945823201782937240E+01   -0.178485245440860751E+02
    0.461818906599827272E+01    0.755344802117137282E+00    0.406772043987290444E+00   -0.175864208274890826E+00    0.984126875870261841E+01   -0.176629149132314467E+02
    0.520931878540184190E+01    0.736995260620291193E+00    0.421364936520563726E+00   -0.350111161815867600E+00    0.558802278628997939E+01   -0.178510058769283191E+02
    0.506697349635323135E+01    0.638140259532460674E+00    0.401026472100159348E+00   -0.850673793834019754E-01    0.916772376027691216E+01   -0.175608151840033173E+02
    0.448810862492827312E+01    0.631910068170208339E+00    0.399337768327869991E+00   -0.547600434204254111E-01    0.132488459176334938E+02   -0.177199696697325422E+02
    0.518971104127003535E+01    0.709525065470813177E+00    0.410465690592549670E+00   -0.242254766802942501E+00    0.104064801633930237E+02   -0.177753065858134320E+02
