    0.667732398526427495E+01    0.783783834892725073E+00    0.426659698539642362E+00   -0.210947633378900656E+00    0.516440959319319006E+02   -0.364785650295118415E+02
    0.702274437602984847E+01    0.748884913480183378E+00    0.400867867008185885E+00    0.985308158644126325E-01    0.861499997015739467E+02   -0.361427818162917802E+02
    0.742416162703661175E+01    0.654761655374532126E+00    0.404624998507828348E+00    0.591529141396031910E-01    0.982247995221703150E+02   -0.360800654332766442E+02
    0.945950693304098245E+01    0.651985390588170621E+00    0.417088968869128995E+00   -0.227506172118199096E+00    0.184608005787322554E+03   -0.357872165881564470E+02
    0.746919400871942862E+01    0.632646475740109127E+00    0.410725097440438669E+00   -0.417170851380878061E-01    0.142299093043123861E+03   -0.351452341842156457E+02
    0.941706297702374684E+01    0.685504637548536300E+00    0.411097035223536633E+00   -0.131924140374031190E+00    0.174499082575303731E+03   -0.349964390501843141E+02
    0.996382092634126870E+01    0.665008040039948622E+00    0.402583917555988324E+00   -0.666176720361419811E-01    0.145971817091469205E+03   -0.348493747724463887E+02
    0.526977607724378760E+01    0.840131300673786052E+00    0.400582541028220274E+00    0.123581191848583238E+00    0.906436956557736977E+02   -0.341521194460384265E+02
    0.732125429448545173E+01    0.828207997565723275E+00    0.394991215132216633E+00    0.340561849352517543E-01    0.773249497115369735E+02   -0.340676366942245465E+02
    0.665022241134449477E+01    0.804610025996682854E+00    0.393289116049836796E+00    0.108591643912368752E+00    0.786407468068101423E+02   -0.340014226314941581E+02
    0.564499056951288658E+01    0.858833347589935348E+00    0.427630306856570830E+00   -0.281663213012909586E+00    0.113903994134665538E+03   -0.339769692412184057E+02
    0.798878826822966381E+01    0.789054654695640401E+00    0.396855954145473866E+00    0.109622992648677892E-01    0.992346959953489147E+02   -0.339706588131651586E+02
    0.876372116046694849E+01    0.775168114089582194E+00    0.403698224728067323E+00   -0.901853598015239788E-01    0.128215390930508988E+03   -0.338512729646410264E+02
    0.870500181440857190E+01    0.702581007195313245E+00    0.404021304887996091E+00   -0.524952230788680863E-01    0.134179498943462278E+03   -0.338512067671901562E+02
    0.525825307372913109E+01    0.926081457629775229E+00    0.425978623670533296E+00   -0.212952141429459452E+00    0.462761658644518974E+02   -0.337282052459571915E+02
    0.787472761658227682E+01    0.632119914699814101E+00    0.388575758144202754E+00    0.187100496495716667E+00    0.192306604500964028E+03   -0.333112172428791453E+02
    0.538649588457189221E+01    0.911020164498924867E+00    0.415974084058908011E+00   -0.106500505141402788E+00    0.599020751393096162E+02   -0.331088010522429386E+02
    0.752572681146227751E+01    0.725338968748510338E+00    0.405565965461507916E+00   -0.450246120987497084E-01    0.160273781216986464E+03   -0.328185411224486145E+02
    0.583282135372170174E+01    0.769699612734930594E+00    0.397951366633565895E+00    0.122783135383492115E+00    0.147432045199503818E+03   -0.326950201632253439E+02
    0.689510443246427940E+01    0.906364353892096131E+00    0.407470108166838207E+00   -0.143741671169476337E+00    0.102741514457502632E+03   -0.323356541489106775E+02
    0.506628520733394083E+01    0.702051996344277285E+00    0.393142519325080375E+00    0.152439585295671726E+00    0.220411652172986749E+03   -0.322911445892037463E+02
    0.634813182409631871E+01    0.726337990697842439E+00    0.404075931238884412E+00   -0.164837314883661615E-01    0.148501190157043169E+03   -0.320640733833178544E+02
    0.634813182409631871E+01    0.726337990697842439E+00    0.404075931238884412E+00   -0.164837314883661615E-01    0.148501190157043169E+03   -0.320640733833178544E+02
    0.672671583647863791E+01    0.738804146000194062E+00    0.400908616701027565E+00    0.288676790502955631E-01    0.149866287626775744E+03   -0.320049760625959081E+02
    0.603018710767736099E+01    0.729983166089313573E+00    0.400726208765419367E+00    0.469288339245294830E-03    0.163431378467477941E+03   -0.318708420043369856E+02
    0.601735675074416410E+01    0.730385150898670732E+00    0.402598827361764666E+00    0.209378438506255607E-01    0.161139613935134832E+03   -0.318696345307781606E+02
    0.518247496028367749E+01    0.879507594678964555E+00    0.406566010761255203E+00   -0.188607222966945889E-01    0.115113737031592095E+03   -0.318282885615119611E+02
    0.546563238086942249E+01    0.818000584792964114E+00    0.400038659326095003E+00    0.993063638785764494E-02    0.184321447041331737E+03   -0.317002233576561423E+02
    0.590530577215524843E+01    0.809442067490716011E+00    0.393669433685269743E+00    0.117016275543372364E+00    0.114663958031084391E+03   -0.316706227209691953E+02
    0.706592580473261922E+01    0.818850878014484307E+00    0.402210471909498046E+00   -0.595290509715534696E-01    0.118060661381692469E+03   -0.316396743148031092E+02
    0.593409007074666217E+01    0.801314987718579785E+00    0.405252184813302552E+00   -0.272511339054337005E-01    0.143438728073766015E+03   -0.314778505559921413E+02
    0.714548170762143542E+01    0.863718858222437325E+00    0.408667189365045203E+00   -0.203557926409651091E+00    0.110815713408915144E+03   -0.314402046917120757E+02
    0.618987190211529903E+01    0.784065035507983343E+00    0.402501979004893151E+00   -0.504577782568934458E-01    0.173325060306711777E+03   -0.313743703686390560E+02
    0.595207195471687101E+01    0.769847520492948356E+00    0.393292812735903496E+00    0.124013543527433767E+00    0.148721596046572444E+03   -0.311927194281256774E+02
    0.603546382093839728E+01    0.943970534449734333E+00    0.405102946495090543E+00   -0.102652135651442114E+00    0.683708553093566280E+02   -0.310869920492078791E+02
    0.620108710148435449E+01    0.101553053705178753E+01    0.418405221114437564E+00   -0.348255939867279096E+00    0.751502380365368339E+02   -0.309775250078739539E+02
    0.562553979202292531E+01    0.880359154333528182E+00    0.411493746892863610E+00   -0.122004369534346652E+00    0.952418624741769833E+02   -0.308329093514285120E+02
    0.599986217902804242E+01    0.932888691451260965E+00    0.400412652798404156E+00   -0.604936422571463669E-01    0.912812644806826796E+02   -0.308128171791265437E+02
    0.488438389653150118E+01    0.109810720414259033E+01    0.416766433886001153E+00   -0.245485716589102620E+00    0.310237169998687534E+02   -0.306091350537933309E+02
    0.513777574355680056E+01    0.941731303269535691E+00    0.408546857160003385E+00   -0.109953727115532904E+00    0.935393854270621148E+02   -0.301987487793479055E+02
    0.507156949161592330E+01    0.940232498852861309E+00    0.399574756075357251E+00   -0.459314528228024158E-02    0.915250207454448770E+02   -0.300576551882645830E+02
    0.507156949161592330E+01    0.940232498852861309E+00    0.399574756075357251E+00   -0.459314528228024158E-02    0.915250207454448770E+02   -0.300576551882645830E+02
    0.461810647007662123E+01    0.974577631842452941E+00    0.408533770897626658E+00   -0.874852351276613482E-01    0.661331216245263818E+02   -0.301650876424884764E+02
    0.461810647007662123E+01    0.974577631842452941E+00    0.408533770897626658E+00   -0.874852351276613482E-01    0.661331216245263818E+02   -0.301650876424884764E+02
    0.529691937706512572E+01    0.106275352998249728E+01    0.407205851036580690E+00   -0.181285459112952740E+00    0.590827301218101582E+02   -0.301101018940793779E+02
    0.529691937706512572E+01    0.106275352998249728E+01    0.407205851036580690E+00   -0.181285459112952740E+00    0.590827301218101582E+02   -0.301101018940793779E+02
    0.505995806521974512E+01    0.876649585336985226E+00    0.397845779259061838E+00    0.537188441068268407E-01    0.125087897092729435E+03   -0.305682571344181255E+02
    0.523079572564033146E+01    0.101540081284859252E+01    0.409206545176845626E+00   -0.175364908251413459E+00    0.809347803092911562E+02   -0.302766548564494613E+02
    0.523079572564033146E+01    0.101540081284859252E+01    0.409206545176845626E+00   -0.175364908251413459E+00    0.809347803092911562E+02   -0.302766548564494613E+02
    0.587258705746008935E+01    0.927148377572883486E+00    0.411382820360574830E+00   -0.192482977673963385E+00    0.998791917509644236E+02   -0.304167424096281458E+02
    0.587258705746008935E+01    0.927148377572883486E+00    0.411382820360574830E+00   -0.192482977673963385E+00    0.998791917509644236E+02   -0.304167424096281458E+02
    0.459051869434195758E+01    0.858522240851249729E+00    0.394365090353433367E+00    0.118135619110874279E+00    0.131835584366277317E+03   -0.305830260307241453E+02
    0.532689764500265106E+01    0.921996836940278230E+00    0.396568754631680731E+00    0.110180435802725591E-01    0.108027144206945167E+03   -0.301157955137032971E+02
    0.532689764500265106E+01    0.921996836940278230E+00    0.396568754631680731E+00    0.110180435802725591E-01    0.108027144206945167E+03   -0.301157955137032971E+02
    0.448558633003955354E+01    0.952025788120634320E+00    0.397649172577838383E+00    0.531251884794305476E-01    0.856659961524477467E+02   -0.303996504509064422E+02
    0.448558633003955354E+01    0.952025788120634320E+00    0.397649172577838383E+00    0.531251884794305476E-01    0.856659961524477467E+02   -0.303996504509064422E+02
