    0.166942338766283065E+02    0.251418848659914596E+00    0.423645457384468127E+00   -0.299393474522409775E+00    0.732100411704495571E+02   -0.238161252833404973E+02
    0.173198244627626892E+02    0.288597985030255577E+00    0.419113397970091506E+00   -0.239047038182797489E+00    0.104806365764983070E+03   -0.231618062767878961E+02
    0.151181217583626726E+02    0.168938407834575505E+00    0.397544956442497877E+00    0.109802924854712297E+00    0.155772167974386065E+03   -0.230418614171126173E+02
    0.707607139064338497E+01    0.239150618536233345E+00    0.374773672153247694E+00    0.432899386157715449E+00    0.201833659087931409E+03   -0.226340001932893280E+02
    0.787878012310179798E+01    0.911772278710274164E-01    0.354813168772461496E+00    0.597830584791084418E+00    0.261730249618298728E+03   -0.218780302216396549E+02
    0.950067556805287339E+01    0.136801778283179132E+00    0.384983354185125914E+00    0.292851366462832774E+00    0.233252308917750241E+03   -0.216945095701273054E+02
    0.137882001836929202E+02    0.243483238275324559E+00    0.392637544065451205E+00    0.475239568880513052E-01    0.103092336424575251E+03   -0.209386211203573573E+02
    0.137882001836929202E+02    0.243483238275324559E+00    0.392637544065451205E+00    0.475239568880513052E-01    0.103092336424575251E+03   -0.209386211203573573E+02
    0.984159795806382576E+01    0.241305037073666490E+00    0.378514637410154509E+00    0.354069564581323437E+00    0.171089857382609438E+03   -0.209243697609050088E+02
    0.984159795806382576E+01    0.241305037073666490E+00    0.378514637410154509E+00    0.354069564581323437E+00    0.171089857382609438E+03   -0.209243697609050088E+02
    0.964316420427702070E+01    0.469927714368582383E+00    0.398529112593304591E+00   -0.128987060185272423E+00    0.107700344387887370E+03   -0.208770747389847600E+02
    0.964316420427702070E+01    0.469927714368582383E+00    0.398529112593304591E+00   -0.128987060185272423E+00    0.107700344387887370E+03   -0.208770747389847600E+02
    0.124117440072163348E+02    0.104019362231846713E+00    0.373369091118251117E+00    0.303482775757092038E+00    0.181026128634904296E+03   -0.208658224929444351E+02
    0.110509712467842061E+02    0.183088052243925298E+00    0.369007153484786354E+00    0.339095818258695281E+00    0.185797560576113767E+03   -0.208443109496551848E+02
    0.110509712467842061E+02    0.183088052243925298E+00    0.369007153484786354E+00    0.339095818258695281E+00    0.185797560576113767E+03   -0.208443109496551848E+02
    0.108477269347130925E+02    0.114215574044015500E+00    0.365783159773343025E+00    0.420278346768806710E+00    0.167082639039962544E+03   -0.208203579918959463E+02
    0.960475635771689440E+01    0.180887105908051182E+00    0.381237021514743812E+00    0.247728592288457283E+00    0.232385436791321098E+03   -0.207904372056308944E+02
    0.837353103528950982E+01    0.205797546662285336E+00    0.359859333849605278E+00    0.509484403034206945E+00    0.194311894037036240E+03   -0.207079197184041419E+02
    0.917253577197084091E+01    0.194607669440954478E+00    0.360249839350330503E+00    0.511434239528134160E+00    0.186593537314797942E+03   -0.206637286339383870E+02
    0.917226176514646241E+01    0.371167126577301831E+00    0.381546312937419085E+00    0.137411945342296199E+00    0.114482823786368471E+03   -0.204111559284563455E+02
    0.110651261858414482E+02    0.370846350100891287E+00    0.405524051177305167E+00   -0.149387797956915591E+00    0.881274505091653566E+02   -0.202399688965733411E+02
    0.110651261858414482E+02    0.370846350100891287E+00    0.405524051177305167E+00   -0.149387797956915591E+00    0.881274505091653566E+02   -0.202399688965733411E+02
    0.116585291495637886E+02    0.156707925017888550E+00    0.371175438524856627E+00    0.335873817917853590E+00    0.223641448000284385E+03   -0.202233501139065233E+02
    0.861808583794771721E+01    0.202769846902226908E+00    0.363896694485506822E+00    0.449673640255132956E+00    0.213021301704595146E+03   -0.201957568937445515E+02
    0.657989345027421280E+01    0.720067749853125383E+00    0.404096928247535792E+00   -0.197915569901203792E+00    0.639445006097632671E+02   -0.201403742341679930E+02
    0.100613857497583883E+02    0.111449975696945466E+00    0.370634560877843466E+00    0.377706407449220960E+00    0.237851043454950428E+03   -0.201166739474744816E+02
    0.109731189784158936E+02    0.486750342909902545E+00    0.398800627260183838E+00   -0.116786591728742423E+00    0.731335117254616307E+02   -0.200028837662315766E+02
    0.124764184285410735E+02    0.234938193319612965E+00    0.395267258005580713E+00    0.684007309833511851E-01    0.140236170773996008E+03   -0.200024170123079408E+02
    0.101286656463599467E+02    0.588758241720237496E+00    0.431967681648097790E+00   -0.501653651333513695E+00    0.561211308066156818E+02   -0.199606112658509325E+02
    0.843223359412222528E+01    0.472456575292653447E+00    0.390191775586006206E+00    0.773879234609336358E-01    0.132814768088022532E+03   -0.198650215782450417E+02
    0.115584628765881661E+02    0.326687711847083395E+00    0.393275714775440544E+00    0.430459953072727941E-01    0.911860183207460011E+02   -0.198585057786154344E+02
    0.105079722009790331E+02    0.346158589454235610E+00    0.402195552208084395E+00   -0.393621892926406258E-01    0.829383481569191758E+02   -0.198444161943895629E+02
    0.113223584872349399E+02    0.333038892186391045E+00    0.398725401859773010E+00    0.731795902405638510E-02    0.102342855189387620E+03   -0.194919375559767474E+02
    0.728905209907842533E+01    0.576305986606116538E+00    0.391670706243070210E+00    0.433916359398223150E-01    0.879241469844657502E+02   -0.191580632560947457E+02
    0.891028513311719550E+01    0.705371400054023434E+00    0.412526794903935456E+00   -0.280978852308875149E+00    0.299436491225344952E+02   -0.193255624569798456E+02
    0.722070014177520747E+01    0.812153219908859136E+00    0.434069062354701884E+00   -0.551430354394963684E+00    0.306930029856115425E+02   -0.186838282880242161E+02
    0.722070014177520747E+01    0.812153219908859136E+00    0.434069062354701884E+00   -0.551430354394963684E+00    0.306930029856115425E+02   -0.186838282880242161E+02
    0.957825421297895829E+01    0.477874809955581958E+00    0.407836019894930568E+00   -0.144507196585725473E+00    0.671875812618866490E+02   -0.187894703517002490E+02
    0.104650756243821306E+02    0.491588594386327626E+00    0.414324624507735051E+00   -0.209386623621576728E+00    0.756462880206657360E+02   -0.192676232920579764E+02
    0.849176075295963706E+01    0.507131539110908358E+00    0.407832856917703324E+00   -0.144502638839277303E+00    0.589339249885420173E+02   -0.190885389436420212E+02
    0.852565564591626668E+01    0.394925016289326969E+00    0.394635005307117925E+00    0.224967799682845512E-01    0.122431534733906489E+03   -0.193657629819955623E+02
    0.940534225208056185E+01    0.505577184612142516E+00    0.401647850108666327E+00   -0.653985098479519106E-01    0.661199617460948303E+02   -0.188300504155666744E+02
    0.940534225208056185E+01    0.505577184612142516E+00    0.401647850108666327E+00   -0.653985098479519106E-01    0.661199617460948303E+02   -0.188300504155666744E+02
