    0.408771848087760503E+01    0.777625772589356168E+00    0.404085299758143224E+00    0.111687767696173959E+00    0.626748718911898237E+02   -0.428802145357902447E+02
    0.494992580196358389E+01    0.733691323397275941E+00    0.367112817307239436E+00    0.419804076111697677E+00    0.137146718081594088E+03   -0.427087299774029319E+02
    0.435607070036381128E+01    0.834883387056711501E+00    0.374681047301521963E+00    0.267092136844749195E+00    0.960629879138584215E+02   -0.412050002911189708E+02
    0.513451014755965485E+01    0.754221113901643481E+00    0.383748281492732768E+00    0.178110508915000354E+00    0.120819866168523802E+03   -0.405013141590191097E+02
    0.407447147045586533E+01    0.900529951239123494E+00    0.426478367148063919E+00   -0.247721899857354516E+00    0.609955856489434609E+02   -0.397442404719472222E+02
    0.412863742968655068E+01    0.957861010921668421E+00    0.390087320182452069E+00    0.321846856667713718E-01    0.409397575389170143E+02   -0.394735770703444260E+02
    0.501159987280448416E+01    0.804136707255110661E+00    0.416690392566128387E+00   -0.165756430175089925E+00    0.614794431813897546E+02   -0.392676827625097360E+02
    0.471839590226985361E+01    0.844740289090850083E+00    0.419383490238237178E+00   -0.221105713172779050E+00    0.716157856393801495E+02   -0.388679243753085260E+02
    0.448354112407009708E+01    0.830137169094626870E+00    0.401009514183412852E+00   -0.193879219959693719E-01    0.841048148301255196E+02   -0.387049173000386872E+02
    0.538766555808136616E+01    0.838149775416665355E+00    0.395981372566005740E+00    0.370482163052398466E-02    0.750578682963206774E+02   -0.386064292305332302E+02
    0.419064675788448948E+01    0.104702097822750817E+01    0.430004633554291582E+00   -0.346051814747039554E+00    0.285197836136208451E+02   -0.384148229342313385E+02
    0.538934122325264742E+01    0.889563247707211402E+00    0.403051457223845722E+00   -0.151717394566101782E+00    0.505903765968251236E+02   -0.380582553341848069E+02
    0.351532493935997570E+01    0.114639543026358326E+01    0.419591534595742166E+00   -0.302511436194123629E+00    0.146691191576481792E+02   -0.380436219376421860E+02
    0.399001003275653421E+01    0.104440576765610893E+01    0.399623408271533531E+00   -0.884586352323436659E-01    0.461576440963072088E+02   -0.377679144689038893E+02
    0.489644260797322595E+01    0.978867650037662851E+00    0.420296395665181122E+00   -0.352931300930023950E+00    0.191437867446013072E+02   -0.376092321432823127E+02
    0.386054890014186336E+01    0.101185533632433700E+01    0.420403019046227899E+00   -0.242877691228767539E+00    0.436149139408878170E+02   -0.375786946362908978E+02
    0.427434010173286349E+01    0.100534143367135842E+01    0.415943966691653788E+00   -0.247576526300849170E+00    0.217284163846365743E+02   -0.374346937384327205E+02
    0.618292104351728788E+01    0.899922124989232852E+00    0.431620804781017053E+00   -0.484072381353623460E+00    0.541376200560488670E+02   -0.371625190581676605E+02
    0.493265261507120645E+01    0.916646835913767166E+00    0.425263593042855437E+00   -0.343732764811711389E+00    0.590714243442433116E+02   -0.371156611621887933E+02
    0.496962333225351305E+01    0.929383705314693720E+00    0.430136775406386673E+00   -0.379757181509279784E+00    0.310705858645721378E+02   -0.370741154201212879E+02
    0.410205670234392361E+01    0.965465035121993109E+00    0.427371758933196288E+00   -0.338782680849028850E+00    0.313393770391120619E+02   -0.369918735215945134E+02
    0.564550733595497078E+01    0.898901135210380731E+00    0.415314196255972157E+00   -0.269450444366437947E+00    0.611741824942182006E+02   -0.369689420909387181E+02
    0.564550733595497078E+01    0.898901135210380731E+00    0.415314196255972157E+00   -0.269450444366437947E+00    0.611741824942182006E+02   -0.369689420909387181E+02
    0.525552216239173831E+01    0.102778077313335059E+01    0.443909486437978007E+00   -0.605466075183827446E+00    0.352974319233893539E+02   -0.369343330206713887E+02
    0.512344019127704886E+01    0.896043177488380249E+00    0.418851670804792575E+00   -0.305816691068280855E+00    0.489456924857179700E+02   -0.368053157527616364E+02
    0.433801966465857802E+01    0.948061033366754624E+00    0.402448040622493841E+00   -0.105478919359685952E+00    0.537309549366259915E+02   -0.365781746328958803E+02
    0.345508938287606071E+01    0.104985678156721018E+01    0.425390659725417675E+00   -0.349761583104048757E+00    0.371129143055604658E+02   -0.365521178985692430E+02
    0.345508938287606071E+01    0.104985678156721018E+01    0.425390659725417675E+00   -0.349761583104048757E+00    0.371129143055604658E+02   -0.365521178985692430E+02
    0.482354006949104352E+01    0.938416219060100754E+00    0.408995611833869510E+00   -0.204090276819268834E+00    0.437256704125213886E+02   -0.363892324931888496E+02
    0.481759550215115784E+01    0.918043822776651863E+00    0.416903771323256400E+00   -0.279006751789444729E+00    0.564491420308591856E+02   -0.363410298871012429E+02
    0.481759550215115784E+01    0.918043822776651863E+00    0.416903771323256400E+00   -0.279006751789444729E+00    0.564491420308591856E+02   -0.363410298871012429E+02
    0.520212295284308457E+01    0.103467681858478766E+01    0.439643191926805121E+00   -0.550981131791505097E+00    0.203623932760977198E+02   -0.362810169428982547E+02
    0.548247653092517417E+01    0.938986764861526213E+00    0.427498930031419755E+00   -0.396268227533633888E+00    0.394799845599316512E+02   -0.361997181620920045E+02
    0.548247653092517417E+01    0.938986764861526213E+00    0.427498930031419755E+00   -0.396268227533633888E+00    0.394799845599316512E+02   -0.361997181620920045E+02
    0.552303068557637822E+01    0.984499795489759522E+00    0.448304469667310690E+00   -0.648180304058143086E+00    0.263737628986325063E+02   -0.361488092952245026E+02
    0.552303068557637822E+01    0.984499795489759522E+00    0.448304469667310690E+00   -0.648180304058143086E+00    0.263737628986325063E+02   -0.361488092952245026E+02
    0.549568897275224089E+01    0.960246423589680265E+00    0.437014609179169289E+00   -0.575796053998021029E+00    0.398066104952082398E+02   -0.360552305481216919E+02
    0.410948109137844497E+01    0.104899023010468095E+01    0.436362776733128344E+00   -0.469566026751466692E+00    0.325756756619469883E+02   -0.360365438584895657E+02
    0.458408330044130086E+01    0.102348746331192908E+01    0.421189481869664650E+00   -0.327221189482213459E+00    0.395983045715614708E+02   -0.359923756568603253E+02
    0.566236713624154131E+01    0.953569370455671250E+00    0.432730789668661797E+00   -0.518937669685102354E+00    0.448019108410763565E+02   -0.358907688615469453E+02
    0.376745610103205752E+01    0.102342807196823404E+01    0.419740012806954166E+00   -0.317254833059457453E+00    0.323963197175656106E+02   -0.358889710738240737E+02
    0.537428520348667149E+01    0.100306976744299070E+01    0.436795110958024535E+00   -0.576424014405529817E+00    0.430642641638269055E+02   -0.358734917394239332E+02
    0.516985128126598514E+01    0.960854163588018784E+00    0.422617375029234965E+00   -0.386722864248410514E+00    0.346823544203387399E+02   -0.356765933647023701E+02
    0.568557598198116665E+01    0.969416840612632336E+00    0.434805062279445542E+00   -0.568940563789285370E+00    0.365087871858494779E+02   -0.356568892548045966E+02
    0.441499325933880105E+01    0.111443604598068347E+01    0.444110778874785894E+00   -0.613159489547337788E+00    0.147763995754732989E+02   -0.355828484497988811E+02
    0.486349380866633574E+01    0.969301245108188492E+00    0.422736149164322506E+00   -0.365726991534086943E+00    0.396486569464969349E+02   -0.352656330579418764E+02
    0.434969733452104901E+01    0.110004576283559041E+01    0.450546762125893563E+00   -0.660221561547951752E+00    0.182178218411420758E+02   -0.356350825940785967E+02
    0.515209172658854442E+01    0.101178352795656568E+01    0.427059815994072278E+00   -0.469439334974883771E+00    0.330335417434571852E+02   -0.347558290849976999E+02
    0.515209172658854442E+01    0.101178352795656568E+01    0.427059815994072278E+00   -0.469439334974883771E+00    0.330335417434571852E+02   -0.347558290849976999E+02
    0.427344784421562096E+01    0.104870199995392377E+01    0.418179673439505906E+00   -0.323475015613984951E+00    0.254566347232386008E+02   -0.354331033907527484E+02
    0.503324965104179523E+01    0.101544766259484787E+01    0.433635495899619916E+00   -0.485033286308556522E+00    0.297714743349981177E+02   -0.353367098433052647E+02
    0.470625241296919672E+01    0.992977596270115836E+00    0.418025554848374115E+00   -0.319223688833738639E+00    0.411512105002321391E+02   -0.351546995901024957E+02
    0.421273524901369889E+01    0.107214089208050112E+01    0.423411311485732522E+00   -0.415883542903326686E+00    0.225145561647402062E+02   -0.348487755983825309E+02
    0.421273524901369889E+01    0.107214089208050112E+01    0.423411311485732522E+00   -0.415883542903326686E+00    0.225145561647402062E+02   -0.348487755983825309E+02
    0.415306999353667727E+01    0.101587184587933765E+01    0.430598673534789145E+00   -0.417240455800497623E+00    0.339763993867241894E+02   -0.353959026551530229E+02
    0.415306999353667727E+01    0.101587184587933765E+01    0.430598673534789145E+00   -0.417240455800497623E+00    0.339763993867241894E+02   -0.353959026551530229E+02
    0.497383093834264844E+01    0.989260862603784541E+00    0.432987613772903790E+00   -0.483558270540995094E+00    0.376019395420994726E+02   -0.351883775191140984E+02
