    0.728717689229919152E+01    0.449458317210778446E+00    0.377099610111951589E+00    0.265309562050449532E+00    0.759009625340618754E+02   -0.608941249269384883E+02
    0.124513004919466326E+02    0.298037087603291007E+00    0.387488745982374816E+00    0.130139387782204963E+00    0.122116267486527477E+03   -0.598033019157329093E+02
    0.886547768726934748E+01    0.381633800366122933E+00    0.371804936955233256E+00    0.386392669531468502E+00    0.148090264682371014E+03   -0.596644119157790058E+02
    0.692876853819493022E+01    0.599779404391053705E+00    0.447170906989027672E+00   -0.589152869499987908E+00    0.393424973809247760E+02   -0.595770086870169777E+02
    0.957156583311958542E+01    0.498805735845389397E+00    0.413598119854524049E+00   -0.322342085205346129E+00    0.745426271257802142E+02   -0.583899756531872498E+02
    0.951845385521682985E+01    0.513501280395020854E+00    0.445878293753853905E+00   -0.603512739842189450E+00    0.712926990184516427E+02   -0.582456358843899622E+02
    0.122029149432695228E+02    0.354196644024235952E+00    0.405339115194167654E+00   -0.359870971058505185E-01    0.115647034404279651E+03   -0.581761410544533533E+02
    0.122473163353034238E+02    0.447807785212469001E+00    0.407046350505150645E+00   -0.248440832317743693E+00    0.938273149780241056E+02   -0.581260822843798834E+02
    0.107486153863259144E+02    0.508954990530157692E+00    0.433883022558837095E+00   -0.391867192192868696E+00    0.538063352671041883E+02   -0.576273597448014385E+02
    0.866071964519001902E+01    0.723661827969937610E+00    0.459783772420496006E+00   -0.777173813836548155E+00    0.208160596994139055E+02   -0.573702751018368744E+02
    0.125172113116107688E+02    0.518535604680595230E+00    0.449939681980234929E+00   -0.658041550847749068E+00    0.317548939763315055E+02   -0.572076769837231183E+02
    0.793324745873600001E+01    0.538010014704220829E+00    0.417312344412233693E+00   -0.285528212881167365E+00    0.952460627719291182E+02   -0.568935113358878581E+02
    0.727308402022414757E+01    0.613602540574932354E+00    0.439757428305571851E+00   -0.533544072341843978E+00    0.511692053162370541E+02   -0.566899295651772093E+02
    0.853633786758681801E+01    0.488725334015055746E+00    0.419265935319788730E+00   -0.212109305093843792E+00    0.918094550539108525E+02   -0.566467662566330930E+02
    0.841701154560507803E+01    0.797587712256035752E+00    0.433325541821331484E+00   -0.643325750613811476E+00    0.308084564276191060E+02   -0.560140628552603488E+02
    0.853985687960642892E+01    0.711309465848976918E+00    0.432877965122493824E+00   -0.509445281767873626E+00    0.193872024978811019E+02   -0.559771264082614337E+02
    0.115761749517555632E+02    0.500447613303104388E+00    0.435231088741736161E+00   -0.501247175031138470E+00    0.351636402612715244E+02   -0.559723564016490513E+02
    0.948827173559571690E+01    0.434384472592064919E+00    0.414514526682860263E+00   -0.201203765744266433E+00    0.893137279289663866E+02   -0.559531641938379991E+02
    0.948827173559571690E+01    0.434384472592064919E+00    0.414514526682860263E+00   -0.201203765744266433E+00    0.893137279289663866E+02   -0.559531641938379991E+02
    0.922699421138813669E+01    0.501215182269937998E+00    0.397646333980099853E+00   -0.427150181685547053E-01    0.590608822784209337E+02   -0.558847697333507298E+02
    0.924361856807969140E+01    0.528688278297993697E+00    0.399483822243617781E+00   -0.667646141228121354E-01    0.890525209444511177E+02   -0.558679461953058549E+02
    0.888030947943627247E+01    0.453730591726517973E+00    0.414831800833853348E+00   -0.178334620222484197E+00    0.930106543382193394E+02   -0.557321224548734691E+02
    0.888030947943627247E+01    0.453730591726517973E+00    0.414831800833853348E+00   -0.178334620222484197E+00    0.930106543382193394E+02   -0.557321224548734691E+02
    0.786279947074350982E+01    0.686168249078700332E+00    0.447938964286646313E+00   -0.619364694196906429E+00    0.224847202490133888E+02   -0.556871281384389363E+02
    0.101923605961399755E+02    0.471771120398480570E+00    0.427150321774697916E+00   -0.398039163661271567E+00    0.719573824187707771E+02   -0.555703177113069557E+02
    0.684862627677550151E+01    0.700761658891119188E+00    0.416303575392496961E+00   -0.296241279371986188E+00    0.324423348898730595E+02   -0.555180319048304867E+02
    0.976280100138123785E+01    0.531203863607301874E+00    0.439059753129313945E+00   -0.480984825509201464E+00    0.360160755480361559E+02   -0.554775351562664980E+02
    0.101276315096726695E+02    0.502184294585315216E+00    0.433254124932341222E+00   -0.409154911750367389E+00    0.514337006735047240E+02   -0.552274766577254326E+02
    0.937250422789011672E+01    0.624101715975213467E+00    0.415042237841410422E+00   -0.353523886567818024E+00    0.628739361110474988E+02   -0.549275214946727957E+02
    0.933131615166895934E+01    0.560540508822677475E+00    0.440444481469030036E+00   -0.543833510395392183E+00    0.306391469203946301E+02   -0.549129976109859612E+02
    0.121319877968508472E+02    0.599236483546053966E+00    0.439178686132020712E+00   -0.688858119672850711E+00    0.389728947201031275E+02   -0.548913486332048137E+02
    0.101414636527241537E+02    0.528996203343930271E+00    0.416209676578420229E+00   -0.313067806611166399E+00    0.451685785666334212E+02   -0.546241749499951581E+02
    0.114892983320943962E+02    0.542758643934124763E+00    0.434465074993950207E+00   -0.571646240795831595E+00    0.549804963265149809E+02   -0.545783637455199795E+02
    0.836864795432611075E+01    0.564990107504989014E+00    0.429265419113973812E+00   -0.414572604466303340E+00    0.373556050606322501E+02   -0.545572787066668283E+02
    0.114136880793078905E+02    0.571831017054403645E+00    0.443551200182121352E+00   -0.674491486853147748E+00    0.452358390452901276E+02   -0.544697475515125547E+02
    0.114136880793078905E+02    0.571831017054403645E+00    0.443551200182121352E+00   -0.674491486853147748E+00    0.452358390452901276E+02   -0.544697475515125547E+02
    0.103629701572935264E+02    0.595239216123363724E+00    0.429538489083860220E+00   -0.472001039900377617E+00    0.371199950526898164E+02   -0.543374084146813345E+02
    0.102372597665992906E+02    0.518106579378629473E+00    0.413873012927439277E+00   -0.256355993807885374E+00    0.685354315198908211E+02   -0.543253714441672244E+02
    0.779907978002410651E+01    0.611835943355720335E+00    0.408260962838792596E+00   -0.201041930747331260E+00    0.501488157795023426E+02   -0.542570123228906809E+02
    0.931339829500037908E+01    0.618600682617863606E+00    0.423569831878351788E+00   -0.405506295877705036E+00    0.524567641704496737E+02   -0.541030539462712383E+02
    0.805455621347039497E+01    0.598388211310671547E+00    0.422110089275683387E+00   -0.325283574653248697E+00    0.495668614006158634E+02   -0.539158141018717032E+02
    0.898806707325243970E+01    0.618871396669271823E+00    0.415434275895524507E+00   -0.361151284357083768E+00    0.475850587444646465E+02   -0.538297996330506408E+02
    0.882652018183426712E+01    0.574370091782401615E+00    0.428054983678437695E+00   -0.448184721549017506E+00    0.416153143677645545E+02   -0.537995151366482105E+02
    0.100889679183366585E+02    0.635594465819088073E+00    0.439750746508177082E+00   -0.632845329867482098E+00    0.265167666794176995E+02   -0.537970525975144724E+02
    0.871721738336144902E+01    0.640698501439467827E+00    0.432891857507423261E+00   -0.572047426787193225E+00    0.508365668380271245E+02   -0.537813664721154367E+02
    0.869292479779546312E+01    0.564120184465247698E+00    0.416587221189120116E+00   -0.302965758747615777E+00    0.576652694317879337E+02   -0.534195968971776693E+02
    0.869292479779546312E+01    0.564120184465247698E+00    0.416587221189120116E+00   -0.302965758747615777E+00    0.576652694317879337E+02   -0.534195968971776693E+02
    0.861330048090196954E+01    0.626846736413678274E+00    0.423191645524126581E+00   -0.415995479039513394E+00    0.547448785889469605E+02   -0.533741772917761352E+02
    0.834597635702409413E+01    0.670607330935599322E+00    0.438233653036711246E+00   -0.612464715864010412E+00    0.345163360925977685E+02   -0.528455662445907564E+02
    0.834597635702409413E+01    0.670607330935599322E+00    0.438233653036711246E+00   -0.612464715864010412E+00    0.345163360925977685E+02   -0.528455662445907564E+02
    0.986028425082352555E+01    0.610359977708480272E+00    0.428786519001493949E+00   -0.489095119224887021E+00    0.508206658901261008E+02   -0.537078831484545063E+02
    0.789460888012826167E+01    0.694138118579411989E+00    0.423156205765857829E+00   -0.448875454185921674E+00    0.277766762170558223E+02   -0.536710577121108798E+02
    0.846931806253824071E+01    0.616848569983568074E+00    0.411992289204161533E+00   -0.274401648231031803E+00    0.513165105720316603E+02   -0.537486708604956931E+02
    0.735523633869043714E+01    0.768987853097466756E+00    0.430955953381756074E+00   -0.576753049069884893E+00    0.279494578327413024E+02   -0.534822973670545281E+02
    0.922918727425015462E+01    0.582579304383247121E+00    0.439480775150084990E+00   -0.563055073807771977E+00    0.455082730223688046E+02   -0.537529060968438870E+02
    0.957324806891821112E+01    0.683378085161950310E+00    0.443034987921014367E+00   -0.736452565495284150E+00    0.357152369649790842E+02   -0.533960261475622602E+02
    0.957324806891821112E+01    0.683378085161950310E+00    0.443034987921014367E+00   -0.736452565495284150E+00    0.357152369649790842E+02   -0.533960261475622602E+02
    0.917645463870486289E+01    0.595330875952852945E+00    0.418606699929040371E+00   -0.378668139991955366E+00    0.544753940351409369E+02   -0.533736325870122030E+02
